310 128
/location/statistical_region/rent50_2./measurement_unit/dated_money_value/currency 0.330679 0.077216 -0.173233 -0.132857 -0.090281 0.066281 0.002160 0.101436 0.103691 -0.113063 -0.038009 0.083789 -0.335815 0.207615 0.081315 0.063800 -0.106918 0.035580 -0.196846 0.022227 -0.018465 -0.495166 0.026734 0.019263 -0.065854 0.253021 0.377715 -0.155056 -0.088906 0.009513 0.388638 0.290402 -0.252558 -0.331240 0.303127 -0.361099 0.082967 0.387124 -0.335810 -0.221015 0.011633 0.214807 -0.121230 0.455076 0.150827 0.389861 0.068002 0.333876 0.038122 -0.371769 0.144100 -0.069382 -0.564567 -0.263985 0.030233 0.079731 0.129901 -0.220762 -0.131923 0.113940 -0.133180 -0.042144 0.128633 -0.317241 0.111461 -0.059728 -0.171759 0.258284 0.021305 0.108881 0.374154 -0.186278 0.095026 -0.082463 0.216016 0.439096 0.147105 0.134921 0.008875 -0.010542 0.062683 -0.163491 0.112838 0.016808 -0.018433 -0.262273 -0.153997 0.206339 0.183238 -0.216614 0.092292 0.476585 -0.064794 0.185740 0.398097 -0.084821 0.448006 0.289500 0.190408 -0.134570 -0.224879 -0.087114 -0.009392 -0.122987 -0.344230 -0.248895 -0.059129 0.123559 0.300141 0.226034 -0.095618 -0.205307 0.022542 -0.064283 0.059807 -0.339396 0.323241 0.169655 0.111476 0.119199 0.070149 0.164585 -0.041233 -0.196330 0.027416 -0.358689 0.353721 -0.212188 
/location/administrative_division/second_level_division_of 0.636495 0.145940 -0.327606 -0.235786 -0.145062 0.119195 0.035660 0.168119 0.119282 -0.079917 -0.044065 0.054354 -0.362682 0.245071 0.077912 0.093943 -0.117165 -0.019500 -0.189043 0.052717 -0.007372 -0.466520 0.030850 -0.000962 -0.047643 0.244603 0.380396 -0.139399 -0.076818 0.001686 0.448068 0.312505 -0.224454 -0.313503 0.258867 -0.371795 0.086664 0.408157 -0.303636 -0.199955 -0.004677 0.202885 -0.085411 0.370102 0.112255 0.330216 0.067275 0.302218 0.040308 -0.288418 0.125884 -0.063551 -0.463282 -0.189678 0.034576 0.056129 0.139527 -0.176134 -0.115016 0.081012 -0.068601 -0.056543 0.130062 -0.251066 0.087086 -0.013234 -0.113917 0.201763 -0.000464 0.048965 0.290693 -0.144363 0.060996 -0.057450 0.121933 0.315737 0.067043 0.109907 0.012644 0.012210 0.053250 -0.103821 0.059631 0.010904 0.000711 -0.202213 -0.101482 0.186110 0.083832 -0.164482 0.090230 0.347317 -0.076165 0.119259 0.301592 -0.067114 0.353226 0.185989 0.159590 -0.111208 -0.118078 -0.065822 -0.008553 -0.078901 -0.222750 -0.176898 -0.056280 0.088576 0.222990 0.214607 -0.047264 -0.120599 0.049944 0.000866 0.019406 -0.225054 0.236603 0.137582 0.081476 0.078106 -0.001072 0.140572 -0.034106 -0.150286 0.023777 -0.257866 0.240334 -0.186610 
/location/location/time_zones 0.887425 0.199739 -0.458762 -0.316601 -0.199600 0.172512 0.049774 0.230960 0.145568 -0.099289 -0.054363 0.057879 -0.453384 0.315592 0.094816 0.124051 -0.142461 -0.042567 -0.239198 0.073366 -0.000671 -0.573611 0.041720 0.000594 -0.060947 0.302704 0.488807 -0.171874 -0.094929 -0.001960 0.584983 0.398281 -0.270185 -0.375083 0.296395 -0.458557 0.107558 0.511924 -0.354572 -0.228967 -0.015780 0.241060 -0.100221 0.435762 0.129515 0.386421 0.085733 0.360967 0.049429 -0.327743 0.157832 -0.070351 -0.545831 -0.215816 0.047489 0.056415 0.177616 -0.203184 -0.138436 0.090735 -0.068911 -0.073697 0.151001 -0.299408 0.098966 0.003782 -0.127414 0.232661 -0.011300 0.044329 0.331860 -0.173855 0.061139 -0.056348 0.121432 0.363060 0.053866 0.132816 0.024784 0.022099 0.069249 -0.101594 0.057822 0.002952 -0.002418 -0.229083 -0.105974 0.219787 0.079952 -0.191298 0.110329 0.394474 -0.094433 0.135012 0.341874 -0.069010 0.401747 0.194306 0.182645 -0.131843 -0.118953 -0.071454 -0.006542 -0.089700 -0.236806 -0.188889 -0.066731 0.103615 0.247081 0.252530 -0.039584 -0.119603 0.062462 0.017850 0.007223 -0.235064 0.264091 0.155376 0.084553 0.074102 -0.015178 0.161920 -0.038981 -0.173336 0.023681 -0.290420 0.248678 -0.209932 
/location/statistical_region/rent50_0./measurement_unit/dated_money_value/currency 0.521669 0.117163 -0.268166 -0.195554 -0.124157 0.098390 0.025101 0.148597 0.110800 -0.092947 -0.037891 0.068359 -0.338191 0.222673 0.077203 0.075197 -0.111040 -0.001158 -0.188199 0.040010 -0.014365 -0.462999 0.030764 0.008444 -0.054842 0.238220 0.367930 -0.138207 -0.077405 0.004101 0.414865 0.291004 -0.227870 -0.307910 0.266041 -0.357223 0.077933 0.387123 -0.296738 -0.193425 -0.002723 0.201115 -0.101001 0.394162 0.128147 0.346868 0.064105 0.310204 0.043336 -0.315068 0.132421 -0.065921 -0.494518 -0.216266 0.032518 0.062413 0.129928 -0.191515 -0.121784 0.092905 -0.090219 -0.057192 0.122932 -0.269949 0.092956 -0.024716 -0.130040 0.212483 0.004777 0.069213 0.317933 -0.156843 0.072346 -0.061550 0.150337 0.353300 0.093130 0.119262 0.013045 -0.000861 0.054003 -0.122504 0.072395 0.009344 -0.008918 -0.221262 -0.123920 0.186058 0.116207 -0.177484 0.095562 0.394607 -0.068755 0.141205 0.339108 -0.068660 0.387609 0.223359 0.170588 -0.121477 -0.156325 -0.070693 -0.004963 -0.099328 -0.268602 -0.199827 -0.057874 0.102455 0.245925 0.214988 -0.059619 -0.147137 0.038771 -0.019461 0.029301 -0.264971 0.269499 0.139486 0.085101 0.089901 0.025969 0.148212 -0.034239 -0.168729 0.022106 -0.297387 0.281108 -0.196997 
/location/statistical_region/rent50_1./measurement_unit/dated_money_value/currency 0.546231 0.121932 -0.280323 -0.203948 -0.124575 0.107157 0.024717 0.155387 0.115775 -0.095277 -0.043417 0.069018 -0.346391 0.227844 0.080508 0.077195 -0.110272 -0.002162 -0.188815 0.040679 -0.007307 -0.473236 0.027923 0.005422 -0.056932 0.245260 0.377629 -0.140327 -0.079300 0.002301 0.428680 0.304561 -0.236816 -0.313739 0.267962 -0.366793 0.082514 0.396384 -0.309447 -0.197764 0.000115 0.203720 -0.097837 0.401554 0.131668 0.352682 0.069536 0.314721 0.040068 -0.322786 0.135218 -0.064702 -0.504775 -0.215211 0.037621 0.060434 0.136689 -0.201899 -0.126659 0.094466 -0.091998 -0.057751 0.129253 -0.281804 0.097565 -0.030092 -0.135367 0.219647 0.002945 0.072064 0.324477 -0.162668 0.071189 -0.061459 0.158238 0.367085 0.096402 0.121993 0.008094 0.005484 0.058923 -0.125166 0.078607 0.014635 -0.005860 -0.223358 -0.122194 0.195764 0.122183 -0.189609 0.096888 0.402745 -0.072350 0.141075 0.346874 -0.071642 0.389850 0.226394 0.178897 -0.118284 -0.160905 -0.077519 -0.004987 -0.094837 -0.269568 -0.206424 -0.060408 0.102386 0.249476 0.218338 -0.058641 -0.147333 0.043202 -0.016366 0.032537 -0.267125 0.272238 0.148044 0.089939 0.098237 0.021801 0.153037 -0.035526 -0.172365 0.025187 -0.298268 0.286437 -0.202116 
/location/hud_foreclosure_area/total_90_day_vacant_residential_addresses./measurement_unit/dated_integer/source 0.688504 0.156087 -0.358247 -0.252300 -0.153087 0.132220 0.038980 0.181795 0.125309 -0.080123 -0.045374 0.052697 -0.379336 0.254117 0.079771 0.096545 -0.121836 -0.026221 -0.203701 0.057072 -0.008915 -0.480687 0.033114 0.002110 -0.047205 0.257415 0.406129 -0.146854 -0.082157 0.000004 0.474799 0.330316 -0.236900 -0.320919 0.265365 -0.394747 0.085061 0.427279 -0.308443 -0.203160 -0.007615 0.208931 -0.087205 0.382047 0.120357 0.338754 0.072792 0.311894 0.046336 -0.302960 0.133209 -0.065486 -0.476612 -0.200532 0.043178 0.054581 0.149998 -0.188569 -0.122617 0.081520 -0.072405 -0.061052 0.136362 -0.258980 0.096592 -0.002579 -0.116024 0.206961 -0.003525 0.053781 0.297667 -0.156864 0.060055 -0.054599 0.122455 0.328668 0.058835 0.110226 0.018441 0.014730 0.057349 -0.102521 0.058238 0.010963 -0.002729 -0.209430 -0.104486 0.198321 0.081358 -0.170200 0.093235 0.360466 -0.082092 0.121405 0.310756 -0.062059 0.367897 0.186446 0.168935 -0.114478 -0.114551 -0.061665 -0.005481 -0.084812 -0.222077 -0.181626 -0.059724 0.096308 0.228056 0.218987 -0.041764 -0.118719 0.052138 0.005614 0.009025 -0.223211 0.245153 0.140486 0.076236 0.076795 -0.002895 0.138641 -0.038788 -0.153155 0.025146 -0.262070 0.243727 -0.186565 
/location/statistical_region/rent50_4./measurement_unit/dated_money_value/currency 0.536515 0.124418 -0.281324 -0.199472 -0.127063 0.106374 0.019609 0.149392 0.109147 -0.095180 -0.040844 0.063381 -0.343802 0.224531 0.077984 0.076426 -0.112254 -0.002889 -0.192974 0.042302 -0.010544 -0.470017 0.027835 0.003867 -0.055022 0.242453 0.382107 -0.142808 -0.084492 0.008550 0.428428 0.298893 -0.237332 -0.310918 0.272304 -0.368230 0.082376 0.396656 -0.310131 -0.201970 -0.002893 0.203543 -0.104745 0.398014 0.129675 0.353408 0.072734 0.318470 0.039800 -0.324600 0.138304 -0.062998 -0.502733 -0.220848 0.032576 0.061071 0.136949 -0.201184 -0.125968 0.087425 -0.090686 -0.057243 0.130200 -0.276658 0.101987 -0.028052 -0.131931 0.221016 0.005927 0.070964 0.327611 -0.158460 0.074726 -0.066319 0.152327 0.367089 0.090139 0.119978 0.010834 0.001220 0.061238 -0.126631 0.072292 0.014235 -0.008965 -0.227776 -0.121307 0.196564 0.116792 -0.184058 0.098205 0.405438 -0.072840 0.146475 0.344093 -0.074552 0.397909 0.225303 0.179520 -0.121493 -0.156593 -0.074060 -0.008263 -0.102172 -0.267437 -0.205684 -0.053975 0.101735 0.250839 0.225309 -0.061488 -0.150451 0.040842 -0.015460 0.029606 -0.266270 0.273912 0.149668 0.089997 0.093944 0.019115 0.152108 -0.038176 -0.173118 0.026431 -0.300496 0.286318 -0.201164 
/location/hud_foreclosure_area/total_residential_addresses./measurement_unit/dated_integer/source 0.681537 0.149740 -0.352077 -0.248774 -0.150552 0.126791 0.031188 0.179871 0.120260 -0.081145 -0.045043 0.058524 -0.374317 0.256910 0.084452 0.099031 -0.122491 -0.022569 -0.202323 0.053877 -0.008184 -0.489242 0.032914 0.005275 -0.051815 0.259394 0.399627 -0.147359 -0.085501 -0.002100 0.473668 0.326496 -0.232375 -0.322850 0.267174 -0.389072 0.084521 0.426000 -0.309904 -0.205769 -0.006375 0.212007 -0.092898 0.381059 0.117688 0.340335 0.070096 0.311908 0.044573 -0.301574 0.133832 -0.063732 -0.478069 -0.197622 0.042817 0.054451 0.146492 -0.187040 -0.122912 0.083544 -0.070090 -0.060808 0.130058 -0.261739 0.092944 -0.005236 -0.117072 0.200547 -0.003228 0.051536 0.298820 -0.152426 0.059492 -0.052222 0.122741 0.327344 0.061184 0.114591 0.018654 0.013587 0.057871 -0.104572 0.054826 0.011061 0.001307 -0.210987 -0.106437 0.196921 0.084928 -0.166712 0.093055 0.360131 -0.076324 0.125777 0.315270 -0.063936 0.361469 0.186744 0.163508 -0.115184 -0.117925 -0.063009 -0.003775 -0.081097 -0.228183 -0.180248 -0.057679 0.097084 0.229409 0.222685 -0.044724 -0.125803 0.051366 0.002417 0.012433 -0.227230 0.246796 0.139465 0.081170 0.079552 -0.001992 0.143772 -0.036806 -0.155472 0.020445 -0.268371 0.247682 -0.187584 
/location/hud_foreclosure_area/hhuniv./measurement_unit/dated_integer/source 0.698094 0.157680 -0.364739 -0.253244 -0.152352 0.129170 0.035833 0.186555 0.121008 -0.080855 -0.043426 0.055187 -0.384479 0.256170 0.078587 0.096528 -0.119401 -0.027651 -0.202445 0.053423 -0.005810 -0.487191 0.030514 0.004808 -0.046801 0.256205 0.399331 -0.144130 -0.079802 0.003295 0.471293 0.326769 -0.234237 -0.318283 0.261580 -0.389562 0.090167 0.428714 -0.310949 -0.206135 -0.012261 0.208864 -0.088035 0.379004 0.118626 0.337672 0.072750 0.311084 0.043010 -0.294653 0.129124 -0.058489 -0.476210 -0.198332 0.036113 0.057478 0.145808 -0.187305 -0.122744 0.078341 -0.075273 -0.065709 0.128476 -0.255811 0.093992 -0.004570 -0.112363 0.200511 -0.004374 0.049183 0.302042 -0.150369 0.060332 -0.052663 0.125239 0.325582 0.058550 0.116537 0.012927 0.012462 0.055428 -0.101961 0.061104 0.006086 0.002217 -0.210774 -0.100698 0.196401 0.086216 -0.171510 0.093687 0.355182 -0.078810 0.120172 0.310519 -0.063436 0.365191 0.180927 0.168369 -0.113949 -0.119308 -0.065100 -0.005016 -0.078681 -0.220091 -0.181079 -0.062883 0.091602 0.225351 0.219947 -0.042514 -0.121493 0.050068 0.007805 0.011215 -0.223396 0.246168 0.140315 0.080035 0.081154 -0.007068 0.141917 -0.041593 -0.158425 0.023695 -0.257991 0.237312 -0.188874 
/location/hud_foreclosure_area/estimated_number_of_mortgages./measurement_unit/dated_integer/source 0.644001 0.144600 -0.328041 -0.238336 -0.141811 0.123714 0.031619 0.168313 0.123975 -0.086240 -0.047347 0.054088 -0.371979 0.244181 0.080745 0.092546 -0.120205 -0.021508 -0.192672 0.053260 -0.006417 -0.473007 0.032011 0.002881 -0.048545 0.250764 0.385473 -0.141426 -0.083916 0.003143 0.457572 0.314631 -0.224238 -0.309218 0.253558 -0.370554 0.083344 0.409310 -0.302836 -0.196265 -0.007056 0.201797 -0.086605 0.370762 0.114340 0.335209 0.071712 0.307494 0.041177 -0.295533 0.127991 -0.062041 -0.466464 -0.197106 0.039427 0.051544 0.140539 -0.178165 -0.121979 0.080903 -0.073641 -0.059856 0.131406 -0.252614 0.096261 -0.006037 -0.116483 0.203308 -0.005413 0.050136 0.295899 -0.147644 0.057210 -0.051945 0.122707 0.325057 0.063892 0.109512 0.013385 0.010286 0.051356 -0.102851 0.059411 0.010219 -0.002952 -0.204500 -0.102747 0.193744 0.084303 -0.169833 0.092369 0.350501 -0.079655 0.124152 0.307309 -0.067868 0.359793 0.186300 0.165855 -0.112852 -0.117155 -0.063514 -0.004992 -0.085900 -0.222358 -0.177656 -0.055851 0.095032 0.221786 0.215360 -0.045288 -0.123358 0.051247 0.000432 0.013542 -0.220519 0.237837 0.137287 0.081392 0.077370 -0.000759 0.136759 -0.037272 -0.153434 0.020382 -0.265232 0.239812 -0.187305 
/location/location/containedby 1.308429 0.301841 -0.667837 -0.473895 -0.279100 0.249101 0.072672 0.345195 0.206517 -0.112707 -0.089171 0.070502 -0.616931 0.435010 0.127490 0.185253 -0.186423 -0.076074 -0.311458 0.122702 0.000643 -0.748316 0.058252 0.000408 -0.066949 0.408664 0.648244 -0.222077 -0.128437 -0.016119 0.797006 0.547832 -0.349388 -0.483465 0.385658 -0.630363 0.141786 0.688377 -0.462725 -0.302217 -0.025142 0.318738 -0.116020 0.538806 0.157069 0.500060 0.101407 0.476580 0.073633 -0.411106 0.200746 -0.090658 -0.684355 -0.253897 0.059383 0.060712 0.238762 -0.252363 -0.183198 0.105635 -0.071344 -0.098597 0.196591 -0.374391 0.129334 0.014644 -0.154469 0.291703 -0.012168 0.051454 0.411214 -0.216332 0.067424 -0.078699 0.140486 0.435124 0.052049 0.158076 0.035003 0.035958 0.076499 -0.110552 0.061264 -0.003104 0.011158 -0.291330 -0.119190 0.290070 0.065580 -0.235950 0.143485 0.468305 -0.135938 0.155088 0.427234 -0.088399 0.497477 0.224502 0.234517 -0.180895 -0.120842 -0.090563 -0.006796 -0.110494 -0.269282 -0.223154 -0.098983 0.117659 0.293743 0.340612 -0.025872 -0.135454 0.096051 0.046981 0.004799 -0.260738 0.332005 0.186475 0.102043 0.077561 -0.046349 0.208934 -0.057029 -0.224191 0.024045 -0.338192 0.283788 -0.263762 
/transportation/road/major_cities 0.245685 0.061039 -0.128457 -0.099583 -0.068479 0.053652 0.004758 0.081007 0.092221 -0.108096 -0.036117 0.084117 -0.300994 0.187730 0.075727 0.055096 -0.092962 0.039833 -0.181735 0.015191 -0.018897 -0.463260 0.026496 0.025273 -0.062405 0.238353 0.350268 -0.144943 -0.085466 0.017587 0.354175 0.263180 -0.235737 -0.306289 0.296673 -0.338209 0.074341 0.352931 -0.314793 -0.211175 0.020305 0.196433 -0.116394 0.440319 0.144164 0.367692 0.060266 0.316799 0.036460 -0.356919 0.137824 -0.065000 -0.546773 -0.247626 0.022295 0.072886 0.119461 -0.212996 -0.125931 0.120688 -0.133462 -0.041461 0.120389 -0.305290 0.106537 -0.064788 -0.169264 0.245855 0.023065 0.118865 0.362537 -0.182981 0.091214 -0.079783 0.222550 0.428858 0.152319 0.133072 0.002968 -0.007456 0.060805 -0.163368 0.118033 0.015414 -0.018294 -0.251668 -0.149176 0.199575 0.183974 -0.210938 0.082322 0.469669 -0.057057 0.188382 0.387197 -0.079929 0.428342 0.292251 0.188757 -0.127846 -0.226246 -0.087806 -0.008165 -0.117937 -0.343753 -0.241755 -0.052223 0.124851 0.295712 0.211403 -0.091625 -0.211257 0.006712 -0.073756 0.069799 -0.342773 0.318165 0.160256 0.102947 0.120482 0.081949 0.153163 -0.032192 -0.186943 0.020566 -0.348463 0.345881 -0.208137 
/transportation/road/end2./transportation/road_starting_point/location 0.255211 0.059177 -0.133007 -0.106398 -0.074553 0.051555 -0.002216 0.089135 0.096214 -0.110248 -0.036899 0.082608 -0.311406 0.184148 0.072285 0.052220 -0.102625 0.043631 -0.184464 0.016145 -0.016737 -0.463752 0.025517 0.031017 -0.061176 0.238348 0.356354 -0.154030 -0.084639 0.013724 0.355299 0.269396 -0.234092 -0.313273 0.293814 -0.346394 0.077337 0.354801 -0.314024 -0.205488 0.021629 0.203539 -0.124450 0.439084 0.143663 0.372361 0.057512 0.323385 0.039284 -0.361094 0.132499 -0.071955 -0.544885 -0.251565 0.027619 0.076192 0.113226 -0.210826 -0.127142 0.120240 -0.137636 -0.042361 0.113390 -0.305868 0.110024 -0.063260 -0.171838 0.245897 0.025759 0.114346 0.357736 -0.182902 0.090168 -0.078734 0.218971 0.430966 0.149940 0.129177 0.003980 -0.004533 0.054240 -0.160715 0.113269 0.016650 -0.020431 -0.251096 -0.151432 0.196036 0.188317 -0.208363 0.082797 0.465784 -0.064560 0.181461 0.388125 -0.079601 0.429677 0.290749 0.186129 -0.126529 -0.224576 -0.087684 -0.007146 -0.120899 -0.344870 -0.237051 -0.054237 0.120927 0.296409 0.212968 -0.097527 -0.211652 0.012962 -0.072385 0.069695 -0.336785 0.316950 0.162976 0.102695 0.122259 0.080740 0.159820 -0.033226 -0.187016 0.020927 -0.345885 0.345740 -0.203695 
/transportation/road/end1./transportation/road_starting_point/location 0.245305 0.057053 -0.127135 -0.107539 -0.069257 0.048276 0.001536 0.084945 0.096998 -0.106393 -0.031403 0.084572 -0.301273 0.185133 0.080219 0.056730 -0.096760 0.037545 -0.186687 0.015494 -0.017793 -0.464459 0.024901 0.031736 -0.066923 0.242767 0.355410 -0.145416 -0.082559 0.011388 0.348114 0.266530 -0.239167 -0.306022 0.295621 -0.336648 0.081835 0.351527 -0.318415 -0.206927 0.014772 0.201704 -0.123499 0.434590 0.140590 0.369790 0.058634 0.322919 0.037727 -0.353968 0.131816 -0.066122 -0.545148 -0.248593 0.020486 0.070214 0.112579 -0.212520 -0.126364 0.115568 -0.131260 -0.039356 0.113569 -0.305024 0.103853 -0.061647 -0.174310 0.255240 0.023707 0.112215 0.361802 -0.184299 0.088618 -0.083191 0.220550 0.434105 0.151046 0.131507 0.004241 -0.003386 0.056714 -0.163877 0.116799 0.019298 -0.021474 -0.250252 -0.153569 0.200536 0.184048 -0.205941 0.082339 0.474056 -0.065011 0.180545 0.394064 -0.082882 0.429024 0.287106 0.183191 -0.124109 -0.223485 -0.086039 -0.003538 -0.117603 -0.342202 -0.240504 -0.057510 0.119055 0.291416 0.211426 -0.093727 -0.211273 0.013938 -0.078190 0.071629 -0.338397 0.315099 0.165743 0.110739 0.122124 0.075034 0.153693 -0.032798 -0.192989 0.026332 -0.347019 0.348906 -0.206617 
/base/biblioness/bibs_location/state 0.281571 0.064836 -0.152466 -0.111600 -0.080588 0.059821 0.007499 0.085422 0.095152 -0.101159 -0.027142 0.077922 -0.307684 0.190906 0.073795 0.057776 -0.096418 0.032864 -0.183522 0.012221 -0.013665 -0.456462 0.024292 0.022504 -0.063711 0.232150 0.346674 -0.144581 -0.083676 0.013639 0.356050 0.266248 -0.230881 -0.310335 0.282833 -0.338022 0.080353 0.349706 -0.315541 -0.205978 0.016362 0.200212 -0.113778 0.426840 0.144761 0.362955 0.063856 0.314106 0.041305 -0.350005 0.136527 -0.066114 -0.528670 -0.246257 0.021040 0.069701 0.119358 -0.207419 -0.122167 0.113294 -0.130921 -0.038656 0.116257 -0.295129 0.105754 -0.062591 -0.164639 0.241784 0.016940 0.109799 0.346047 -0.177515 0.087313 -0.075411 0.208020 0.418744 0.144199 0.130096 0.011427 -0.004063 0.056993 -0.153029 0.104968 0.018414 -0.020213 -0.242178 -0.147956 0.191093 0.177314 -0.198423 0.083979 0.459132 -0.057101 0.173378 0.375823 -0.082844 0.426902 0.280884 0.185665 -0.117687 -0.217060 -0.080226 -0.004373 -0.115977 -0.329522 -0.230422 -0.055980 0.118396 0.285885 0.207707 -0.088874 -0.194627 0.011311 -0.067957 0.066074 -0.330902 0.305852 0.162105 0.098914 0.114405 0.068942 0.156619 -0.038510 -0.187169 0.023299 -0.335281 0.341915 -0.198351 
/location/hud_foreclosure_area/estimated_number_foreclosures./measurement_unit/dated_integer/source 0.684680 0.150031 -0.352782 -0.246517 -0.155316 0.131381 0.033206 0.176981 0.127252 -0.085614 -0.045952 0.059236 -0.384034 0.254088 0.077678 0.094012 -0.118876 -0.029839 -0.204653 0.053331 -0.004406 -0.489384 0.030059 0.003643 -0.051766 0.259835 0.398569 -0.147415 -0.086490 0.000797 0.474635 0.323971 -0.239108 -0.322934 0.265487 -0.388276 0.090553 0.432586 -0.314131 -0.206617 -0.011185 0.204605 -0.090470 0.376365 0.115828 0.340847 0.072499 0.310852 0.042354 -0.300286 0.129150 -0.060143 -0.476985 -0.198134 0.038356 0.054701 0.144071 -0.181965 -0.121587 0.077478 -0.069775 -0.060099 0.133236 -0.256608 0.097139 -0.003884 -0.116418 0.201234 -0.003142 0.051736 0.300500 -0.153684 0.056477 -0.055263 0.124810 0.327786 0.064655 0.114715 0.015000 0.015910 0.057555 -0.099950 0.061124 0.007263 -0.000359 -0.207346 -0.104128 0.194384 0.080377 -0.166989 0.094464 0.355228 -0.078628 0.117156 0.312113 -0.061933 0.364702 0.183803 0.163014 -0.111003 -0.113520 -0.061657 -0.002752 -0.078655 -0.225070 -0.175877 -0.059516 0.096161 0.228919 0.223949 -0.040052 -0.123598 0.051684 0.009298 0.013399 -0.224033 0.244511 0.136891 0.078744 0.079922 -0.003372 0.139346 -0.039058 -0.157187 0.024464 -0.258231 0.243640 -0.191739 
/base/biblioness/bibs_location/country 0.297421 0.065901 -0.159414 -0.121522 -0.079011 0.060177 0.004379 0.093926 0.100311 -0.107855 -0.029800 0.074791 -0.315894 0.189953 0.078488 0.061168 -0.101835 0.034443 -0.192559 0.020808 -0.011633 -0.462306 0.029661 0.023166 -0.066096 0.243047 0.357331 -0.147583 -0.085075 0.015733 0.359164 0.271950 -0.238213 -0.310358 0.285517 -0.344922 0.083416 0.361774 -0.321167 -0.203996 0.017833 0.203300 -0.111863 0.433103 0.141076 0.365183 0.067094 0.316017 0.040002 -0.352048 0.136473 -0.068149 -0.535382 -0.244394 0.023449 0.074162 0.122920 -0.208112 -0.121613 0.112844 -0.127174 -0.037487 0.116202 -0.297856 0.104301 -0.062474 -0.166008 0.241484 0.017382 0.106506 0.354695 -0.175417 0.088102 -0.070476 0.209006 0.420995 0.143323 0.125221 0.012115 -0.009173 0.055513 -0.156644 0.103071 0.015769 -0.012811 -0.245515 -0.145832 0.197799 0.171538 -0.199686 0.093000 0.454628 -0.058699 0.177940 0.378961 -0.077818 0.432231 0.278057 0.187592 -0.121850 -0.213583 -0.078045 -0.009587 -0.112716 -0.335339 -0.233647 -0.056113 0.117114 0.289130 0.211453 -0.089834 -0.193796 0.018313 -0.064938 0.062106 -0.332347 0.304035 0.162072 0.099642 0.118355 0.062792 0.156859 -0.035643 -0.185160 0.024630 -0.336417 0.343466 -0.198473 
/location/location/people_born_here 0.161435 0.038907 -0.086801 -0.074036 -0.050579 0.041407 -0.007565 0.062538 0.086550 -0.101770 -0.022286 0.074344 -0.264078 0.154813 0.069368 0.041141 -0.083345 0.043651 -0.165078 0.008274 -0.012136 -0.403749 0.020538 0.028949 -0.062401 0.207304 0.302803 -0.134929 -0.072714 0.011504 0.293699 0.223556 -0.209472 -0.278425 0.261173 -0.293992 0.064589 0.306255 -0.281497 -0.180872 0.021097 0.179723 -0.111215 0.400855 0.140171 0.332479 0.058764 0.286591 0.032821 -0.324096 0.123734 -0.060471 -0.501277 -0.233918 0.019702 0.072263 0.104235 -0.195501 -0.113346 0.111712 -0.130693 -0.028761 0.102480 -0.280462 0.099954 -0.066965 -0.164203 0.230083 0.020105 0.111623 0.324403 -0.167425 0.089685 -0.073738 0.210915 0.406364 0.151466 0.123018 0.009150 -0.004456 0.051158 -0.151218 0.112375 0.021820 -0.018009 -0.233405 -0.142035 0.175336 0.179600 -0.188657 0.075733 0.444415 -0.054181 0.177368 0.362346 -0.074306 0.400457 0.276948 0.167286 -0.112505 -0.214094 -0.074977 -0.009893 -0.115411 -0.325577 -0.227513 -0.049698 0.119716 0.281357 0.192388 -0.093087 -0.199898 0.003199 -0.074369 0.068799 -0.321796 0.293609 0.152784 0.096863 0.117130 0.083826 0.148713 -0.033058 -0.173584 0.029401 -0.329415 0.327722 -0.189144 
/sports/sports_team_location/teams 0.278704 0.065670 -0.152428 -0.119338 -0.084156 0.065775 -0.002459 0.093590 0.103707 -0.120730 -0.032209 0.088347 -0.343775 0.205354 0.078176 0.059144 -0.110704 0.045335 -0.210066 0.012191 -0.019393 -0.509961 0.035234 0.030235 -0.078366 0.260921 0.381927 -0.171359 -0.087504 0.007949 0.388307 0.293671 -0.266020 -0.345908 0.322033 -0.376527 0.088765 0.395632 -0.355237 -0.225198 0.019779 0.222572 -0.130186 0.480647 0.156219 0.411383 0.066404 0.350298 0.043182 -0.390469 0.153131 -0.074572 -0.596747 -0.277083 0.029911 0.077529 0.127793 -0.240712 -0.132911 0.128515 -0.149045 -0.044229 0.128872 -0.338305 0.111615 -0.076474 -0.191397 0.279232 0.024676 0.130360 0.389986 -0.199839 0.098553 -0.086859 0.242531 0.477808 0.161774 0.140877 0.010124 -0.007015 0.067306 -0.172069 0.129314 0.021039 -0.021048 -0.276899 -0.165483 0.219415 0.205786 -0.225104 0.099160 0.515695 -0.071658 0.202357 0.426600 -0.084666 0.477218 0.315977 0.204981 -0.131389 -0.246760 -0.087182 -0.010473 -0.129139 -0.382084 -0.267931 -0.056788 0.130202 0.327777 0.234290 -0.099595 -0.223431 0.007836 -0.080969 0.071259 -0.370536 0.340837 0.179190 0.116944 0.131863 0.081254 0.171797 -0.034840 -0.204308 0.030082 -0.386267 0.387850 -0.222125 
/geography/river/cities 0.295856 0.075575 -0.153967 -0.124347 -0.082593 0.058772 0.000682 0.100377 0.107887 -0.112010 -0.035827 0.078606 -0.324594 0.198883 0.075443 0.065065 -0.099805 0.040792 -0.194374 0.021437 -0.010706 -0.483270 0.030049 0.028829 -0.073944 0.251913 0.367491 -0.151045 -0.086061 0.007739 0.378540 0.282817 -0.240097 -0.320929 0.301940 -0.357663 0.086882 0.370968 -0.333791 -0.215673 0.019365 0.212840 -0.126139 0.447266 0.155024 0.386612 0.071090 0.327433 0.039100 -0.367442 0.146520 -0.074242 -0.565283 -0.261870 0.022109 0.074588 0.120989 -0.219693 -0.129582 0.119686 -0.130544 -0.033956 0.121760 -0.315856 0.112907 -0.065803 -0.173816 0.261936 0.020352 0.118562 0.370916 -0.181748 0.096097 -0.083967 0.223346 0.445557 0.152276 0.131635 0.007507 -0.004154 0.057078 -0.157360 0.108607 0.018347 -0.011950 -0.261553 -0.150276 0.203106 0.182698 -0.212722 0.091617 0.477582 -0.061119 0.185076 0.403134 -0.079726 0.442067 0.288045 0.190427 -0.128376 -0.228186 -0.080703 -0.002641 -0.121376 -0.350988 -0.242856 -0.057415 0.126364 0.296662 0.220818 -0.092375 -0.209093 0.017259 -0.072995 0.069289 -0.343940 0.318547 0.170262 0.104225 0.116764 0.075248 0.166674 -0.036593 -0.199493 0.031296 -0.352367 0.352763 -0.207124 
/geography/river/mouth 0.104406 0.033299 -0.068478 -0.055024 -0.039657 0.030759 -0.004861 0.046062 0.077654 -0.099708 -0.020326 0.077936 -0.241287 0.137079 0.061542 0.033851 -0.076054 0.052755 -0.157619 0.004239 -0.010277 -0.389161 0.016478 0.032080 -0.062965 0.203386 0.286945 -0.129262 -0.068298 0.013554 0.271821 0.207004 -0.206598 -0.265488 0.259669 -0.277965 0.068722 0.286710 -0.277121 -0.178989 0.019406 0.171826 -0.115109 0.392011 0.135262 0.325715 0.050660 0.273614 0.035499 -0.319385 0.117722 -0.060738 -0.483664 -0.228420 0.014421 0.069046 0.092825 -0.194885 -0.107542 0.111462 -0.130303 -0.024665 0.099039 -0.270611 0.098164 -0.072527 -0.161795 0.228575 0.029233 0.114716 0.322951 -0.159856 0.093798 -0.071792 0.213255 0.402166 0.155644 0.113722 0.000560 -0.011734 0.049413 -0.154506 0.112436 0.020736 -0.022587 -0.229262 -0.139147 0.169572 0.182598 -0.187156 0.076689 0.433940 -0.044450 0.176733 0.356170 -0.079242 0.401094 0.274773 0.166921 -0.115033 -0.224911 -0.073499 -0.007601 -0.111710 -0.325750 -0.226172 -0.049136 0.116993 0.276770 0.182522 -0.097120 -0.200136 0.003319 -0.079754 0.076176 -0.322224 0.292362 0.148324 0.097790 0.114918 0.082683 0.141286 -0.033308 -0.170748 0.026472 -0.321345 0.331152 -0.177534 
/base/aareas/schema/administrative_area/administrative_parent 0.347482 0.084328 -0.189648 -0.145411 -0.097372 0.068754 0.007166 0.112366 0.116045 -0.118482 -0.035508 0.089579 -0.350775 0.218204 0.080237 0.066146 -0.109302 0.037559 -0.211201 0.025827 -0.016005 -0.517243 0.028841 0.025448 -0.068453 0.272417 0.396340 -0.164385 -0.088427 0.010068 0.410816 0.306343 -0.260754 -0.343941 0.321828 -0.386681 0.086998 0.403140 -0.346798 -0.226674 0.014931 0.225788 -0.123271 0.470671 0.157003 0.404769 0.071855 0.349520 0.045241 -0.380128 0.150799 -0.076562 -0.594420 -0.273654 0.029900 0.083236 0.136035 -0.228689 -0.133895 0.125240 -0.143608 -0.039057 0.131499 -0.330298 0.115206 -0.059813 -0.180806 0.269230 0.024751 0.119336 0.387734 -0.194070 0.098841 -0.084691 0.224099 0.466582 0.150664 0.142904 0.008590 -0.002418 0.058189 -0.168441 0.114992 0.017044 -0.015132 -0.275222 -0.153281 0.218752 0.189580 -0.222233 0.100757 0.501921 -0.074637 0.197171 0.420735 -0.082512 0.465709 0.307065 0.205628 -0.136487 -0.228261 -0.088938 -0.008993 -0.133052 -0.367662 -0.250864 -0.068881 0.134905 0.313160 0.238148 -0.093939 -0.208432 0.014530 -0.065040 0.068325 -0.356744 0.341735 0.177664 0.108355 0.129490 0.072212 0.168047 -0.038004 -0.209839 0.029823 -0.366944 0.370312 -0.221739 
/location/administrative_division/country 0.055742 0.019258 -0.035487 -0.034439 -0.029695 0.020643 -0.008494 0.031647 0.070812 -0.097777 -0.014613 0.074340 -0.219900 0.123986 0.056461 0.030593 -0.074739 0.055511 -0.143278 -0.007178 -0.015580 -0.363139 0.022180 0.026947 -0.062301 0.187216 0.262294 -0.121349 -0.069568 0.018189 0.241410 0.186136 -0.196871 -0.250469 0.248224 -0.259037 0.061100 0.261156 -0.262310 -0.167682 0.025846 0.161721 -0.104288 0.375451 0.129218 0.316233 0.051755 0.257972 0.029115 -0.312249 0.113494 -0.061684 -0.466730 -0.225510 0.013799 0.066421 0.087228 -0.188309 -0.104785 0.109371 -0.129081 -0.020007 0.091967 -0.266282 0.089972 -0.068708 -0.157762 0.218768 0.023898 0.114983 0.315735 -0.155295 0.091151 -0.069011 0.208914 0.391972 0.155198 0.111128 0.003141 -0.012184 0.043694 -0.148999 0.108587 0.020231 -0.018467 -0.226631 -0.141898 0.166204 0.181408 -0.178934 0.072562 0.422040 -0.040724 0.170068 0.348393 -0.074541 0.387047 0.268475 0.163476 -0.103647 -0.217212 -0.072590 -0.005527 -0.115075 -0.323397 -0.218057 -0.044962 0.112072 0.265130 0.173639 -0.092849 -0.199137 -0.004434 -0.084269 0.074946 -0.322983 0.278145 0.148161 0.092076 0.116861 0.083793 0.134075 -0.027207 -0.165732 0.019916 -0.316029 0.325975 -0.173824 
/royalty/royal_line/kingdom_s_ruled 0.265241 0.067439 -0.143704 -0.111751 -0.077211 0.057232 -0.005303 0.097135 0.104088 -0.120737 -0.037170 0.102112 -0.346798 0.203725 0.089549 0.056426 -0.116594 0.051674 -0.218124 0.014107 -0.016989 -0.520684 0.026228 0.028267 -0.076603 0.265749 0.391870 -0.162260 -0.097073 0.018406 0.400463 0.296372 -0.271213 -0.356873 0.330436 -0.381563 0.083929 0.394910 -0.364013 -0.241815 0.022906 0.231033 -0.132421 0.489218 0.165955 0.426233 0.081658 0.364089 0.036684 -0.410766 0.157542 -0.084598 -0.618135 -0.290812 0.026600 0.089669 0.123150 -0.248790 -0.137084 0.136133 -0.151389 -0.034236 0.134615 -0.343081 0.121413 -0.078562 -0.193891 0.279718 0.028297 0.140243 0.407776 -0.204060 0.107786 -0.095333 0.242392 0.495764 0.175365 0.144737 0.004295 -0.005890 0.061665 -0.180931 0.131011 0.030492 -0.022278 -0.288368 -0.166038 0.213527 0.219484 -0.240253 0.103190 0.535971 -0.065012 0.208311 0.443904 -0.092812 0.486694 0.324192 0.210990 -0.140216 -0.255659 -0.095243 -0.006170 -0.138661 -0.395803 -0.284804 -0.055975 0.143805 0.339616 0.252003 -0.107122 -0.232699 0.005763 -0.078146 0.070534 -0.393360 0.363300 0.189138 0.127057 0.143698 0.089589 0.181786 -0.037268 -0.219114 0.037696 -0.405269 0.398239 -0.234945 
/symbols/name_source/namesakes 0.127392 0.033477 -0.070635 -0.059959 -0.042722 0.028877 -0.009502 0.059596 0.081703 -0.105541 -0.027202 0.084349 -0.262018 0.150668 0.071606 0.041411 -0.090975 0.046757 -0.171120 0.003065 -0.015035 -0.413147 0.016531 0.026103 -0.066564 0.203607 0.304333 -0.132249 -0.072877 0.018116 0.294760 0.219858 -0.215497 -0.281707 0.273614 -0.294936 0.064781 0.303608 -0.287615 -0.189853 0.018513 0.180760 -0.110251 0.403191 0.139719 0.342124 0.062782 0.289036 0.029666 -0.334811 0.119674 -0.066350 -0.504574 -0.241873 0.013719 0.070783 0.093171 -0.197205 -0.103941 0.110636 -0.137964 -0.028935 0.097371 -0.289176 0.101925 -0.073799 -0.164366 0.236291 0.024582 0.119673 0.338132 -0.167572 0.096999 -0.080529 0.219361 0.412114 0.155884 0.124457 0.009211 -0.009423 0.051636 -0.156844 0.114460 0.026384 -0.022600 -0.234047 -0.142321 0.176303 0.184126 -0.198135 0.079165 0.453724 -0.053041 0.179493 0.372510 -0.080536 0.409566 0.275328 0.168211 -0.112111 -0.228459 -0.080060 -0.004584 -0.118728 -0.331648 -0.236584 -0.050092 0.113043 0.284308 0.197433 -0.091974 -0.204634 0.004579 -0.080191 0.070444 -0.326809 0.299311 0.150625 0.106761 0.116404 0.082755 0.146909 -0.032199 -0.184296 0.023813 -0.330572 0.341737 -0.183717 
/people/family/country 0.290924 0.068813 -0.155267 -0.120331 -0.078772 0.067987 -0.002924 0.101423 0.121260 -0.142044 -0.034963 0.115534 -0.388940 0.223048 0.103941 0.065410 -0.131182 0.060574 -0.240089 0.010656 -0.021121 -0.585690 0.029277 0.024816 -0.077353 0.301856 0.436226 -0.188653 -0.109140 0.015213 0.443933 0.332195 -0.292685 -0.397878 0.375379 -0.419553 0.103018 0.444862 -0.402237 -0.265334 0.025603 0.256105 -0.158066 0.546597 0.177364 0.476967 0.089151 0.396379 0.039408 -0.452511 0.173836 -0.092309 -0.690259 -0.323026 0.024462 0.089272 0.142174 -0.281757 -0.160031 0.157134 -0.170481 -0.044127 0.150422 -0.386164 0.130376 -0.090610 -0.216511 0.316884 0.026259 0.155635 0.450013 -0.222705 0.127697 -0.101586 0.276817 0.553237 0.196229 0.169102 0.005211 -0.015670 0.075896 -0.209870 0.144360 0.033098 -0.019808 -0.322355 -0.188003 0.237272 0.245628 -0.262449 0.109953 0.598457 -0.075201 0.225071 0.494702 -0.101003 0.540166 0.366940 0.233021 -0.157207 -0.282802 -0.109441 -0.005970 -0.153040 -0.441077 -0.310281 -0.064172 0.157140 0.369272 0.279059 -0.113179 -0.259708 0.007542 -0.093885 0.078788 -0.436839 0.397996 0.209405 0.129517 0.161478 0.106421 0.193668 -0.037580 -0.242683 0.043026 -0.446931 0.451149 -0.251319 
/people/deceased_person/place_of_death 0.321049 0.077383 -0.174769 -0.133521 -0.087154 0.065488 0.008553 0.101493 0.113434 -0.125051 -0.031883 0.088269 -0.348550 0.206881 0.083569 0.064331 -0.115332 0.033979 -0.205703 0.016871 -0.011171 -0.522414 0.032539 0.026560 -0.071275 0.260891 0.392855 -0.165174 -0.091492 0.017955 0.398668 0.297309 -0.258718 -0.348549 0.322625 -0.378655 0.088587 0.395044 -0.353344 -0.222812 0.020933 0.217128 -0.133226 0.477261 0.160250 0.408532 0.071352 0.347120 0.046159 -0.384415 0.148166 -0.073821 -0.593808 -0.272292 0.023821 0.078601 0.131340 -0.240098 -0.135116 0.120619 -0.142284 -0.038904 0.126162 -0.338019 0.116333 -0.069067 -0.182765 0.273809 0.021696 0.118126 0.383569 -0.191892 0.103823 -0.080420 0.230475 0.459998 0.154285 0.141963 0.009290 -0.008935 0.061316 -0.167881 0.119332 0.021922 -0.014826 -0.272029 -0.162704 0.208776 0.194384 -0.225978 0.095769 0.510260 -0.067281 0.193989 0.420581 -0.089737 0.472315 0.305940 0.203046 -0.139238 -0.237960 -0.089432 -0.008836 -0.134660 -0.369993 -0.261595 -0.058674 0.126491 0.319824 0.234052 -0.099369 -0.219026 0.012818 -0.070791 0.067652 -0.357944 0.342851 0.173912 0.110504 0.133797 0.071429 0.168107 -0.040001 -0.209044 0.026981 -0.380607 0.379306 -0.219997 
/base/saints/saint/venerated_in 0.292999 0.072981 -0.161171 -0.122538 -0.079773 0.064554 0.003316 0.097851 0.106982 -0.119439 -0.030978 0.085432 -0.334337 0.201798 0.088302 0.060150 -0.108036 0.042714 -0.199040 0.015524 -0.017056 -0.501691 0.033540 0.022510 -0.075464 0.253970 0.381072 -0.160457 -0.083921 0.014368 0.384613 0.287509 -0.256160 -0.329528 0.314612 -0.368673 0.078604 0.379252 -0.344204 -0.217114 0.018635 0.212777 -0.128475 0.465569 0.160154 0.399268 0.073587 0.338455 0.041524 -0.376515 0.145184 -0.067644 -0.576538 -0.272593 0.024057 0.079131 0.120758 -0.236778 -0.134030 0.120283 -0.140139 -0.037346 0.128056 -0.322093 0.112267 -0.068428 -0.176902 0.266315 0.022806 0.117558 0.376755 -0.187267 0.096773 -0.085274 0.222725 0.455219 0.153444 0.137016 0.004203 -0.011780 0.067164 -0.169374 0.115261 0.018921 -0.015551 -0.270790 -0.163045 0.209927 0.195412 -0.218543 0.093161 0.499908 -0.066632 0.191283 0.411218 -0.084062 0.458495 0.301710 0.197414 -0.138730 -0.231601 -0.088012 -0.006458 -0.133112 -0.359339 -0.261713 -0.061174 0.124409 0.310354 0.229668 -0.103489 -0.212717 0.012701 -0.077405 0.068310 -0.353817 0.334968 0.174895 0.111159 0.128537 0.078488 0.162141 -0.039270 -0.205194 0.027672 -0.369070 0.367949 -0.223209 
/sports/sports_league_draft/picks./sports/sports_league_draft_pick/school 0.069189 0.019803 -0.031758 -0.042001 -0.026612 0.018843 -0.005676 0.037255 0.068869 -0.102810 -0.012923 0.076067 -0.228322 0.136084 0.066774 0.025287 -0.072142 0.050208 -0.147154 -0.002813 -0.021095 -0.385395 0.011331 0.024086 -0.064380 0.200981 0.270892 -0.124240 -0.071955 0.012446 0.251705 0.202881 -0.212038 -0.264720 0.267760 -0.264016 0.066349 0.270424 -0.282785 -0.173816 0.016919 0.176197 -0.111991 0.387555 0.136256 0.330997 0.046970 0.276506 0.037209 -0.327332 0.124456 -0.059701 -0.490703 -0.243946 0.009689 0.076105 0.086774 -0.197969 -0.106174 0.115733 -0.136198 -0.029005 0.099498 -0.272363 0.094723 -0.074056 -0.165543 0.233878 0.023205 0.123936 0.336838 -0.165231 0.102308 -0.067418 0.223282 0.405950 0.167246 0.119034 0.009005 -0.008169 0.048056 -0.157266 0.118793 0.017795 -0.024105 -0.226246 -0.147296 0.171821 0.189923 -0.198602 0.069673 0.450557 -0.042662 0.183982 0.358771 -0.080277 0.396565 0.287555 0.170245 -0.109291 -0.229551 -0.084984 0.001817 -0.114377 -0.346765 -0.222473 -0.041145 0.122307 0.274452 0.189768 -0.105360 -0.206508 0.004621 -0.086561 0.082552 -0.337506 0.303616 0.152800 0.093217 0.113892 0.097714 0.135822 -0.038631 -0.177913 0.022026 -0.335913 0.338039 -0.180240 
/sports/sports_league_draft/picks./sports/sports_league_draft_pick/team 0.030270 0.008357 -0.033976 -0.035370 -0.036432 0.021399 -0.008803 0.034265 0.071214 -0.104634 -0.023347 0.082325 -0.228685 0.129413 0.055381 0.026827 -0.072816 0.061938 -0.153854 -0.005510 -0.019879 -0.397752 0.014689 0.023088 -0.069599 0.203554 0.279201 -0.132880 -0.074390 0.018732 0.247999 0.193515 -0.209741 -0.262278 0.274920 -0.270969 0.062940 0.272240 -0.272954 -0.184634 0.020225 0.170872 -0.119795 0.398342 0.144693 0.331103 0.062575 0.278983 0.031598 -0.328793 0.112705 -0.059445 -0.512089 -0.247315 0.014008 0.076924 0.081295 -0.201547 -0.100751 0.115244 -0.139031 -0.029854 0.098109 -0.288575 0.100873 -0.077370 -0.171875 0.229800 0.019942 0.122877 0.336728 -0.173420 0.102441 -0.071171 0.231436 0.419879 0.173744 0.116737 0.007517 -0.008266 0.056684 -0.163796 0.114424 0.020148 -0.018308 -0.242581 -0.142826 0.179399 0.199343 -0.198348 0.080641 0.460035 -0.052243 0.190526 0.366947 -0.083434 0.403963 0.297947 0.175513 -0.105714 -0.236285 -0.071930 -0.005225 -0.116827 -0.356663 -0.234413 -0.054004 0.116577 0.295690 0.188469 -0.105891 -0.207501 -0.016002 -0.090335 0.087950 -0.354099 0.298913 0.156819 0.106777 0.130510 0.105848 0.145912 -0.029002 -0.171901 0.027209 -0.341053 0.355699 -0.191083 
/people/ethnicity/people 0.275381 0.061207 -0.143634 -0.117291 -0.086266 0.058546 -0.001984 0.091106 0.109964 -0.111873 -0.037949 0.088892 -0.333568 0.194455 0.080678 0.053475 -0.104670 0.044260 -0.194374 0.015198 -0.012533 -0.494482 0.032624 0.023958 -0.075514 0.247580 0.369559 -0.158191 -0.091602 0.019491 0.376910 0.276183 -0.251157 -0.333806 0.312892 -0.366704 0.080210 0.377251 -0.342282 -0.218604 0.016175 0.211490 -0.124209 0.463318 0.158006 0.395141 0.067105 0.340202 0.040530 -0.383936 0.144398 -0.076434 -0.581840 -0.273327 0.023439 0.076362 0.119310 -0.230410 -0.133508 0.128388 -0.147292 -0.042935 0.125959 -0.325365 0.116617 -0.073530 -0.178285 0.268013 0.019149 0.122254 0.383279 -0.190963 0.095201 -0.083403 0.226192 0.453751 0.155474 0.140893 0.010559 -0.006627 0.055875 -0.165661 0.118557 0.018608 -0.020173 -0.265642 -0.159876 0.208703 0.196200 -0.226716 0.096943 0.496121 -0.068973 0.188889 0.410057 -0.090422 0.460234 0.301007 0.198919 -0.137503 -0.240463 -0.094139 -0.005039 -0.131091 -0.364440 -0.264338 -0.061861 0.131430 0.311048 0.229431 -0.098663 -0.209355 0.012954 -0.075555 0.064986 -0.354262 0.336754 0.174299 0.109138 0.123442 0.075126 0.161993 -0.036290 -0.201977 0.024043 -0.369696 0.371120 -0.216914 
/people/ethnicity/languages_spoken 0.364019 0.081086 -0.193306 -0.149367 -0.106388 0.076413 0.010012 0.123273 0.125602 -0.132150 -0.047476 0.096160 -0.390875 0.241692 0.094360 0.075183 -0.129903 0.039504 -0.236544 0.019208 -0.019313 -0.585837 0.031145 0.026508 -0.085691 0.301353 0.449286 -0.188017 -0.103844 0.018807 0.464068 0.338987 -0.303156 -0.392184 0.365163 -0.429734 0.090313 0.449370 -0.404554 -0.254202 0.015834 0.253483 -0.150761 0.549694 0.177847 0.465899 0.082626 0.394455 0.045769 -0.444459 0.169681 -0.089454 -0.686208 -0.319720 0.025784 0.094544 0.144397 -0.273028 -0.153135 0.147163 -0.167077 -0.044554 0.148285 -0.384294 0.129104 -0.083038 -0.206271 0.309339 0.018728 0.131708 0.452112 -0.219631 0.116171 -0.099621 0.262687 0.536763 0.181853 0.158380 0.006208 -0.004611 0.067066 -0.193519 0.135626 0.022437 -0.021096 -0.317945 -0.185901 0.241195 0.219575 -0.261696 0.112225 0.576068 -0.081141 0.222589 0.483133 -0.102593 0.541976 0.348466 0.235873 -0.155431 -0.271207 -0.108206 -0.013787 -0.153554 -0.428918 -0.305603 -0.073673 0.145869 0.364630 0.268268 -0.117656 -0.245670 0.022801 -0.088373 0.073061 -0.411896 0.393407 0.199324 0.125802 0.145403 0.089046 0.198733 -0.049227 -0.232820 0.036689 -0.435230 0.430364 -0.256881 
/people/ethnicity/geographic_distribution 0.304926 0.066450 -0.159568 -0.129375 -0.092873 0.059915 0.003824 0.107888 0.125828 -0.132422 -0.034750 0.102481 -0.375462 0.219065 0.091175 0.061331 -0.125666 0.045210 -0.223619 0.010833 -0.014668 -0.554580 0.033782 0.022126 -0.076323 0.280785 0.419639 -0.173693 -0.103182 0.012378 0.423898 0.316669 -0.288249 -0.369106 0.354360 -0.406859 0.088090 0.422108 -0.376029 -0.247775 0.013612 0.238510 -0.148868 0.527246 0.182258 0.447876 0.074817 0.387078 0.050653 -0.425768 0.159477 -0.079562 -0.654596 -0.308106 0.028383 0.089735 0.138115 -0.262600 -0.142917 0.137355 -0.160909 -0.040058 0.141883 -0.374333 0.131424 -0.077700 -0.198068 0.293707 0.027172 0.136856 0.437162 -0.208012 0.114627 -0.089187 0.254394 0.517949 0.183667 0.160355 0.002094 -0.006266 0.062705 -0.187650 0.140359 0.018533 -0.019809 -0.299719 -0.180170 0.231418 0.222755 -0.258268 0.102670 0.568341 -0.074373 0.214334 0.464567 -0.101964 0.521151 0.343540 0.216401 -0.150671 -0.270574 -0.105486 -0.006176 -0.144456 -0.411823 -0.299090 -0.065035 0.147309 0.357967 0.257173 -0.115426 -0.245778 0.014650 -0.093653 0.083226 -0.410853 0.376938 0.195647 0.126751 0.143509 0.087144 0.185484 -0.045453 -0.223854 0.028929 -0.422858 0.417896 -0.248007 
/dataworld/gardening_hint/split_to 0.362440 0.090036 -0.189754 -0.159185 -0.115078 0.076571 0.009186 0.122336 0.133051 -0.162857 -0.036293 0.105707 -0.439037 0.255661 0.114453 0.082008 -0.145811 0.050673 -0.271679 0.027801 -0.016680 -0.656038 0.037817 0.024290 -0.097218 0.333762 0.489190 -0.202757 -0.110189 0.022526 0.509468 0.370610 -0.338699 -0.438787 0.417052 -0.487263 0.108554 0.500284 -0.442390 -0.291535 0.028580 0.286749 -0.172404 0.611022 0.215101 0.524333 0.086763 0.455553 0.059085 -0.509803 0.190572 -0.092309 -0.769919 -0.354448 0.027452 0.108585 0.170313 -0.304726 -0.165757 0.167125 -0.183374 -0.051325 0.171683 -0.428726 0.154988 -0.099297 -0.244823 0.355525 0.026827 0.162744 0.514009 -0.252357 0.133707 -0.111756 0.299613 0.597872 0.206083 0.187946 0.014160 -0.013019 0.075612 -0.222882 0.164329 0.029375 -0.023887 -0.354373 -0.212570 0.269554 0.254552 -0.295782 0.125624 0.655881 -0.082637 0.248720 0.544705 -0.123009 0.601970 0.405842 0.251448 -0.172801 -0.316369 -0.116627 -0.013163 -0.163622 -0.476157 -0.336852 -0.070637 0.174683 0.423866 0.294972 -0.139892 -0.280106 0.020159 -0.107621 0.091677 -0.479472 0.446452 0.231172 0.150575 0.165787 0.107177 0.225012 -0.048410 -0.260634 0.037126 -0.483794 0.493146 -0.291037 
/people/ethnicity/included_in_group 0.214605 0.049395 -0.119231 -0.091203 -0.070318 0.041303 0.002347 0.076468 0.098927 -0.109019 -0.025870 0.076712 -0.295675 0.173225 0.074365 0.047070 -0.094329 0.043615 -0.176838 0.006239 -0.016252 -0.445572 0.029374 0.018441 -0.066035 0.225429 0.335605 -0.139541 -0.081883 0.016595 0.338394 0.246407 -0.228583 -0.300460 0.283201 -0.326241 0.072215 0.341319 -0.312999 -0.196414 0.017537 0.192931 -0.118315 0.429159 0.148477 0.358919 0.062515 0.311329 0.031754 -0.355634 0.134529 -0.068861 -0.536609 -0.252333 0.020943 0.073865 0.110214 -0.215695 -0.113816 0.118120 -0.129942 -0.030520 0.117461 -0.303800 0.102129 -0.074367 -0.171634 0.248330 0.023042 0.114742 0.356469 -0.169955 0.090820 -0.074234 0.215384 0.427822 0.149865 0.123516 0.002314 -0.011949 0.051784 -0.160981 0.116535 0.020061 -0.020537 -0.249981 -0.147724 0.186249 0.181929 -0.207997 0.085585 0.466808 -0.054587 0.176336 0.382003 -0.081894 0.427312 0.282476 0.178426 -0.118680 -0.225636 -0.079291 -0.006371 -0.122742 -0.344912 -0.239452 -0.053421 0.116862 0.296394 0.209328 -0.092843 -0.203944 0.007092 -0.074136 0.063922 -0.332234 0.310875 0.157155 0.099664 0.116143 0.075763 0.152805 -0.031102 -0.189968 0.023535 -0.345238 0.345443 -0.200330 
/people/person/gender 0.318443 0.074923 -0.173353 -0.131648 -0.094481 0.060321 0.003553 0.106783 0.120562 -0.125072 -0.039581 0.096720 -0.361894 0.221583 0.086047 0.063395 -0.112849 0.046313 -0.218162 0.019282 -0.014582 -0.544506 0.034653 0.022749 -0.079956 0.277071 0.411866 -0.169697 -0.100121 0.011983 0.421898 0.307783 -0.274866 -0.362519 0.331630 -0.397194 0.091704 0.414257 -0.369317 -0.236566 0.020170 0.233404 -0.141947 0.500991 0.172726 0.424509 0.078174 0.365253 0.041778 -0.414083 0.158133 -0.080910 -0.622676 -0.294222 0.028862 0.087741 0.130710 -0.252376 -0.137227 0.128061 -0.151957 -0.048022 0.135519 -0.354954 0.127370 -0.079306 -0.194693 0.283602 0.017690 0.132078 0.408667 -0.204507 0.102281 -0.084507 0.237833 0.487202 0.168017 0.150279 0.003778 -0.007462 0.068822 -0.184411 0.129598 0.017522 -0.019121 -0.288943 -0.174565 0.220009 0.204471 -0.241912 0.107052 0.536982 -0.066951 0.204062 0.450907 -0.098781 0.496783 0.323707 0.207229 -0.144441 -0.251326 -0.098445 -0.010840 -0.138242 -0.393983 -0.280646 -0.061250 0.135082 0.342279 0.247553 -0.110378 -0.223959 0.013572 -0.084454 0.072156 -0.383075 0.361787 0.183101 0.115750 0.135466 0.081625 0.175111 -0.043568 -0.221389 0.025457 -0.403500 0.393470 -0.236279 
/business/business_operation/industry 0.424653 0.099637 -0.231847 -0.172881 -0.114800 0.085498 0.008435 0.139477 0.146448 -0.160476 -0.044378 0.106107 -0.440920 0.271199 0.107491 0.079107 -0.145416 0.050981 -0.273412 0.023559 -0.013956 -0.663297 0.034556 0.032169 -0.096909 0.343145 0.511850 -0.214299 -0.115129 0.015234 0.526196 0.389360 -0.335166 -0.447489 0.411259 -0.492774 0.111636 0.510939 -0.445370 -0.299200 0.022238 0.280381 -0.172702 0.616735 0.208252 0.523526 0.096741 0.444748 0.054651 -0.501898 0.196741 -0.092010 -0.767291 -0.347414 0.029359 0.099088 0.168224 -0.302082 -0.171733 0.159469 -0.186789 -0.057879 0.172436 -0.428451 0.148241 -0.078677 -0.229411 0.348221 0.022323 0.151846 0.508113 -0.250363 0.125624 -0.102646 0.298352 0.599142 0.199735 0.186175 0.014257 -0.016338 0.085158 -0.213448 0.149994 0.028030 -0.020654 -0.346338 -0.204525 0.270885 0.250572 -0.284888 0.128949 0.643723 -0.083764 0.250948 0.543088 -0.110460 0.607650 0.392725 0.261401 -0.179745 -0.309135 -0.115297 -0.005634 -0.172063 -0.471712 -0.329694 -0.078607 0.169359 0.413696 0.298998 -0.126790 -0.278371 0.028580 -0.093180 0.086900 -0.461072 0.434896 0.226192 0.150657 0.169593 0.096548 0.223164 -0.044354 -0.257770 0.035317 -0.483643 0.481338 -0.291537 
/business/business_operation/revenue./measurement_unit/dated_money_value/currency 0.650388 0.145159 -0.335152 -0.241544 -0.147289 0.117428 0.030796 0.182738 0.122751 -0.102012 -0.049345 0.067669 -0.378290 0.256067 0.092365 0.090123 -0.129407 -0.014790 -0.210916 0.050677 -0.008330 -0.516898 0.040286 0.001202 -0.061894 0.268708 0.419783 -0.156164 -0.088576 0.005944 0.482522 0.335054 -0.252126 -0.342270 0.286085 -0.413337 0.091948 0.444730 -0.333215 -0.220231 -0.002070 0.220943 -0.107243 0.420831 0.136024 0.382203 0.073615 0.341989 0.043998 -0.342011 0.147100 -0.073015 -0.532975 -0.226133 0.039993 0.065419 0.145459 -0.213920 -0.134539 0.096261 -0.092398 -0.064020 0.142033 -0.302827 0.101595 -0.024625 -0.135574 0.231680 0.004793 0.065340 0.346630 -0.167594 0.068239 -0.072050 0.160440 0.381858 0.091658 0.127621 0.014452 0.001976 0.058953 -0.127442 0.070046 0.009743 -0.006952 -0.235329 -0.128956 0.201022 0.116883 -0.198936 0.100515 0.418045 -0.080697 0.141426 0.361419 -0.074028 0.411491 0.222813 0.182730 -0.131127 -0.162158 -0.077492 -0.002036 -0.104024 -0.280734 -0.208353 -0.060771 0.106672 0.260990 0.239243 -0.062504 -0.151714 0.051345 -0.010140 0.028952 -0.270325 0.288927 0.148628 0.094622 0.097648 0.017163 0.155146 -0.040822 -0.181175 0.019988 -0.316946 0.287327 -0.208966 
/business/employer/employees./business/employment_tenure/person 0.171570 0.042355 -0.095606 -0.074754 -0.054001 0.037026 -0.003851 0.061703 0.088640 -0.101785 -0.022627 0.077119 -0.264590 0.157783 0.064113 0.040768 -0.090677 0.046802 -0.165804 0.007236 -0.009639 -0.415459 0.021175 0.021713 -0.062149 0.211693 0.304309 -0.130796 -0.075483 0.013052 0.299789 0.230438 -0.215569 -0.279161 0.270022 -0.301842 0.072618 0.313045 -0.283770 -0.185482 0.019103 0.182489 -0.115716 0.406583 0.135167 0.340654 0.054977 0.289097 0.035613 -0.330258 0.120733 -0.061367 -0.501322 -0.240675 0.020354 0.067954 0.102377 -0.199190 -0.112502 0.105795 -0.131521 -0.030400 0.106568 -0.283470 0.095488 -0.063405 -0.156794 0.230865 0.023184 0.107488 0.334949 -0.163058 0.089834 -0.071674 0.206117 0.405615 0.150294 0.119092 0.001978 -0.012238 0.052624 -0.153428 0.110799 0.023865 -0.018259 -0.234492 -0.143800 0.182693 0.183571 -0.197741 0.078618 0.440903 -0.052067 0.172262 0.368115 -0.075571 0.406267 0.277833 0.168972 -0.119541 -0.220697 -0.073954 -0.001948 -0.116325 -0.329299 -0.227479 -0.050031 0.112888 0.281700 0.193239 -0.092775 -0.192035 0.008342 -0.076617 0.068647 -0.320688 0.294228 0.155136 0.102855 0.121428 0.074072 0.149259 -0.029818 -0.173358 0.022520 -0.331753 0.330656 -0.191742 
/organization/organization/headquarters./location/mailing_address/citytown 0.493931 0.122045 -0.266968 -0.205291 -0.133803 0.100990 0.003485 0.155967 0.170240 -0.185499 -0.052883 0.129094 -0.507488 0.318336 0.126418 0.096241 -0.171564 0.051859 -0.310603 0.026987 -0.021949 -0.761773 0.042868 0.036372 -0.112458 0.390019 0.580851 -0.242521 -0.134825 0.027578 0.606672 0.440897 -0.393033 -0.509429 0.468584 -0.563811 0.128325 0.587442 -0.514192 -0.344021 0.029006 0.321707 -0.191902 0.708493 0.235554 0.607774 0.106874 0.518700 0.056570 -0.570473 0.227620 -0.107682 -0.883400 -0.410567 0.037066 0.113431 0.187276 -0.348132 -0.194043 0.187419 -0.214337 -0.065588 0.198568 -0.494966 0.166254 -0.094830 -0.266179 0.404825 0.031142 0.167263 0.583638 -0.281466 0.142810 -0.122336 0.342624 0.686157 0.232732 0.214927 0.016773 -0.012770 0.089742 -0.252376 0.171871 0.036502 -0.025778 -0.399517 -0.238499 0.310972 0.288391 -0.327669 0.151277 0.749342 -0.103578 0.281330 0.632199 -0.132371 0.699704 0.454759 0.300587 -0.199168 -0.354502 -0.126733 -0.012340 -0.198567 -0.544618 -0.378828 -0.089430 0.189042 0.470452 0.349971 -0.140809 -0.317059 0.022107 -0.102119 0.104272 -0.527235 0.499314 0.258816 0.170015 0.194765 0.113900 0.251972 -0.051502 -0.307820 0.035863 -0.557240 0.557582 -0.328696 
/organization/organization/place_founded 0.352580 0.084867 -0.192197 -0.146409 -0.098684 0.075387 0.000932 0.116112 0.123518 -0.125210 -0.035311 0.092200 -0.361019 0.225757 0.092144 0.071266 -0.122987 0.032623 -0.217846 0.016212 -0.016915 -0.541171 0.032084 0.026272 -0.073698 0.278176 0.417244 -0.170909 -0.095583 0.014598 0.433042 0.315792 -0.274649 -0.360241 0.335446 -0.405928 0.089495 0.421994 -0.368896 -0.238517 0.016168 0.231133 -0.140063 0.501982 0.170729 0.431454 0.073601 0.370043 0.045797 -0.408934 0.161885 -0.079016 -0.628088 -0.285755 0.029160 0.088034 0.135545 -0.251329 -0.142201 0.130229 -0.151648 -0.043425 0.141494 -0.356984 0.117750 -0.072400 -0.185323 0.284370 0.026508 0.121254 0.412550 -0.204932 0.103459 -0.084220 0.238096 0.488638 0.158331 0.154562 0.015281 -0.013352 0.063033 -0.183348 0.122796 0.018513 -0.021634 -0.292242 -0.173964 0.221910 0.204286 -0.239386 0.106037 0.528758 -0.075522 0.199177 0.451058 -0.098516 0.495149 0.323117 0.209347 -0.148940 -0.254377 -0.097194 -0.007422 -0.138791 -0.384393 -0.275047 -0.066807 0.140573 0.338982 0.247257 -0.103342 -0.225311 0.016782 -0.069653 0.073109 -0.381990 0.354531 0.189569 0.120957 0.142321 0.081748 0.178821 -0.037789 -0.213110 0.029006 -0.401225 0.396946 -0.240217 
/business/business_operation/operating_income./measurement_unit/dated_money_value/currency 0.662809 0.149753 -0.341942 -0.245880 -0.150031 0.119733 0.033438 0.185525 0.128904 -0.103164 -0.054986 0.070805 -0.391997 0.267691 0.090368 0.093135 -0.132826 -0.016623 -0.206957 0.052147 -0.007835 -0.526012 0.040246 -0.000593 -0.054514 0.272161 0.429113 -0.158888 -0.089145 0.005212 0.497233 0.345551 -0.259654 -0.345064 0.288242 -0.417510 0.090853 0.446415 -0.334387 -0.221777 -0.007613 0.221944 -0.104960 0.424499 0.136445 0.379413 0.073967 0.342034 0.046221 -0.343776 0.149820 -0.073252 -0.541634 -0.224205 0.041486 0.062115 0.149304 -0.214605 -0.130097 0.095613 -0.090575 -0.064468 0.144627 -0.300000 0.105622 -0.018227 -0.133503 0.230063 0.001559 0.065200 0.347509 -0.171808 0.067845 -0.072569 0.152535 0.378964 0.090081 0.128397 0.017371 -0.000635 0.063555 -0.126877 0.072781 0.007598 -0.009424 -0.234270 -0.129263 0.209324 0.112161 -0.196905 0.105695 0.417356 -0.078008 0.140593 0.360459 -0.081164 0.409106 0.225354 0.185483 -0.136218 -0.156657 -0.078365 -0.004856 -0.101310 -0.269994 -0.209589 -0.060854 0.105064 0.258110 0.238197 -0.059110 -0.148898 0.055405 -0.008409 0.028145 -0.265793 0.280290 0.149680 0.091350 0.092634 0.015297 0.160336 -0.043063 -0.183710 0.022779 -0.315491 0.283381 -0.214968 
/organization/organization/headquarters./location/mailing_address/state_province_region 0.416070 0.101159 -0.218985 -0.175312 -0.116146 0.090496 0.002788 0.134725 0.145173 -0.151402 -0.044320 0.106378 -0.431481 0.268339 0.112308 0.078042 -0.145223 0.045800 -0.262541 0.019594 -0.017549 -0.650070 0.041345 0.031910 -0.086553 0.334204 0.496196 -0.204681 -0.112127 0.023350 0.513037 0.377652 -0.326156 -0.432280 0.394059 -0.481863 0.108944 0.502978 -0.436834 -0.290435 0.022187 0.272108 -0.163250 0.597254 0.193864 0.507262 0.092407 0.442093 0.050806 -0.485051 0.190408 -0.092404 -0.743817 -0.337224 0.035514 0.099393 0.157845 -0.296905 -0.171095 0.154618 -0.175886 -0.053087 0.168571 -0.414087 0.145239 -0.084677 -0.228086 0.342773 0.031583 0.139289 0.491149 -0.244432 0.122732 -0.108593 0.288279 0.580194 0.193165 0.180148 0.016133 -0.015572 0.075416 -0.210776 0.144826 0.022103 -0.025165 -0.340891 -0.204239 0.269538 0.236852 -0.285364 0.119307 0.628214 -0.088076 0.235654 0.525421 -0.116362 0.592813 0.381187 0.252270 -0.175743 -0.294979 -0.106905 -0.007590 -0.160193 -0.461642 -0.326564 -0.077077 0.166903 0.403205 0.299244 -0.120559 -0.266031 0.018256 -0.089422 0.084256 -0.452915 0.428642 0.220086 0.145652 0.168056 0.096171 0.213555 -0.044853 -0.253456 0.030643 -0.467656 0.471534 -0.278026 
/business/business_operation/current_assets./measurement_unit/dated_money_value/currency 0.474167 0.111188 -0.246941 -0.171984 -0.109811 0.093608 0.015755 0.136410 0.103837 -0.096152 -0.037354 0.062153 -0.319568 0.213029 0.078051 0.075205 -0.106846 -0.003270 -0.178627 0.037533 -0.010833 -0.446259 0.032258 0.008256 -0.052822 0.231587 0.356025 -0.133483 -0.073655 0.010039 0.397600 0.279616 -0.225058 -0.302229 0.262936 -0.354458 0.077756 0.377880 -0.295209 -0.191495 -0.001546 0.192477 -0.102723 0.385000 0.124374 0.340884 0.063738 0.304070 0.037894 -0.310543 0.133119 -0.062486 -0.482852 -0.215677 0.031469 0.062270 0.129353 -0.198129 -0.116047 0.087601 -0.097835 -0.049276 0.122282 -0.274219 0.093445 -0.026824 -0.132979 0.214084 0.006100 0.068516 0.318877 -0.154617 0.073907 -0.064965 0.159219 0.361891 0.095638 0.114060 0.007833 0.001459 0.055502 -0.125585 0.073042 0.012596 -0.011540 -0.218981 -0.123736 0.185280 0.125682 -0.180760 0.093435 0.392370 -0.067828 0.140807 0.336692 -0.070304 0.382996 0.220801 0.170617 -0.117974 -0.161111 -0.075539 -0.002141 -0.095194 -0.269924 -0.202223 -0.050507 0.095250 0.244876 0.212648 -0.062184 -0.147857 0.041030 -0.024114 0.032615 -0.260090 0.269884 0.140188 0.088732 0.096675 0.030957 0.149003 -0.036897 -0.166365 0.022937 -0.296354 0.284252 -0.192528 
/business/business_operation/assets./measurement_unit/dated_money_value/currency 0.672039 0.154473 -0.348981 -0.250605 -0.156008 0.122851 0.030604 0.185550 0.132715 -0.106268 -0.050150 0.069311 -0.394381 0.264610 0.090062 0.099320 -0.129092 -0.014770 -0.213067 0.048535 -0.014006 -0.527135 0.035662 0.000300 -0.060059 0.273316 0.429493 -0.153020 -0.093387 0.007985 0.491471 0.344338 -0.260918 -0.351002 0.289828 -0.422929 0.091078 0.453473 -0.335855 -0.219938 -0.005938 0.220882 -0.112986 0.431544 0.137739 0.386696 0.075844 0.344605 0.049851 -0.347577 0.151214 -0.068287 -0.541765 -0.227442 0.043666 0.064338 0.151923 -0.218683 -0.137367 0.091418 -0.093108 -0.062421 0.139720 -0.305372 0.109551 -0.019353 -0.135162 0.233455 0.006729 0.068052 0.350050 -0.172944 0.069553 -0.072159 0.160968 0.389641 0.088105 0.127343 0.010660 -0.001498 0.060766 -0.128406 0.072284 0.011908 -0.008420 -0.239682 -0.130329 0.211388 0.118749 -0.203417 0.107983 0.426594 -0.077721 0.145516 0.366932 -0.079791 0.417936 0.224076 0.191325 -0.131731 -0.162011 -0.076333 -0.006911 -0.103626 -0.277699 -0.210149 -0.059074 0.109278 0.264471 0.245198 -0.057162 -0.151817 0.054034 -0.009966 0.027877 -0.268851 0.291119 0.151577 0.093400 0.099537 0.019200 0.164662 -0.038506 -0.186637 0.020366 -0.317070 0.294670 -0.216977 
/business/business_operation/current_liabilities./measurement_unit/dated_money_value/currency 0.498255 0.112970 -0.260864 -0.182956 -0.116606 0.095493 0.017793 0.143381 0.107587 -0.090462 -0.041457 0.063708 -0.317461 0.211501 0.075050 0.075312 -0.109929 0.001031 -0.183339 0.036163 -0.014240 -0.445818 0.027079 0.004898 -0.051507 0.229403 0.349064 -0.134120 -0.071953 0.006529 0.397399 0.279547 -0.221224 -0.293423 0.251775 -0.349889 0.074514 0.374514 -0.288005 -0.190399 0.003361 0.195269 -0.100449 0.376362 0.124142 0.337866 0.063871 0.301251 0.038586 -0.303300 0.128014 -0.064315 -0.478473 -0.208300 0.033057 0.058804 0.129911 -0.190020 -0.113732 0.082348 -0.085109 -0.055834 0.116074 -0.260509 0.094330 -0.025951 -0.128128 0.208707 0.001399 0.070260 0.312127 -0.154700 0.069762 -0.064399 0.150618 0.345866 0.089020 0.113492 0.012198 0.002630 0.056627 -0.120623 0.074307 0.011232 -0.012260 -0.213560 -0.120165 0.184648 0.113610 -0.174246 0.086562 0.379457 -0.070344 0.133762 0.326847 -0.072822 0.376713 0.213606 0.166048 -0.120011 -0.151416 -0.072052 -0.004629 -0.095284 -0.264381 -0.197523 -0.050342 0.095394 0.240220 0.213769 -0.062130 -0.146302 0.037745 -0.020657 0.030350 -0.256575 0.262405 0.136118 0.087804 0.090120 0.024407 0.138901 -0.033809 -0.167138 0.020332 -0.288438 0.272347 -0.190193 
/business/business_operation/net_profit./measurement_unit/dated_money_value/currency 0.472975 0.111684 -0.243171 -0.172997 -0.108310 0.091568 0.018458 0.134940 0.101462 -0.092080 -0.040061 0.067098 -0.323308 0.212349 0.077226 0.075000 -0.108225 -0.003080 -0.176905 0.037599 -0.012002 -0.441771 0.033044 0.005560 -0.049870 0.227299 0.352272 -0.130391 -0.079670 0.006484 0.396532 0.276077 -0.224432 -0.299764 0.260001 -0.354553 0.076957 0.377414 -0.294640 -0.190270 -0.000445 0.192940 -0.099703 0.384091 0.125767 0.343884 0.068462 0.305443 0.040269 -0.306887 0.133245 -0.063616 -0.484334 -0.211192 0.034220 0.058070 0.128034 -0.195643 -0.116978 0.087082 -0.097061 -0.050928 0.117997 -0.269604 0.098986 -0.026744 -0.126773 0.212398 0.002213 0.070080 0.312067 -0.150913 0.074357 -0.068965 0.155247 0.355858 0.093014 0.118510 0.010816 0.000813 0.052816 -0.126050 0.071456 0.015407 -0.014181 -0.220129 -0.119905 0.187749 0.126438 -0.183026 0.090609 0.396627 -0.064534 0.140839 0.342271 -0.072279 0.381089 0.222927 0.171720 -0.118479 -0.160666 -0.076141 -0.003386 -0.095288 -0.266780 -0.203447 -0.054305 0.094982 0.245022 0.212899 -0.063657 -0.146753 0.037440 -0.024630 0.036077 -0.265456 0.267515 0.143652 0.085501 0.095373 0.026984 0.143482 -0.034305 -0.170772 0.021314 -0.295957 0.282430 -0.192384 
/business/business_operation/liabilities./measurement_unit/dated_money_value/currency 0.490902 0.113915 -0.250136 -0.179145 -0.111096 0.091485 0.022942 0.143389 0.103704 -0.092415 -0.042188 0.065148 -0.321413 0.212828 0.074660 0.074337 -0.101346 -0.001594 -0.176474 0.033619 -0.010074 -0.444503 0.026525 0.007404 -0.050886 0.225334 0.352165 -0.131765 -0.076796 0.007912 0.390245 0.276320 -0.221751 -0.292201 0.254400 -0.348554 0.075430 0.368864 -0.287982 -0.189493 -0.002678 0.192756 -0.101402 0.375576 0.124229 0.335468 0.061488 0.297802 0.039743 -0.303715 0.125949 -0.062810 -0.475868 -0.206508 0.029031 0.055893 0.125218 -0.193125 -0.112299 0.087063 -0.094442 -0.050913 0.115816 -0.270748 0.091728 -0.024653 -0.129344 0.206736 0.003016 0.065784 0.305206 -0.147753 0.069341 -0.066338 0.152446 0.348112 0.089806 0.111216 0.006431 -0.004115 0.055501 -0.119797 0.073656 0.014631 -0.011600 -0.214576 -0.116995 0.178516 0.122770 -0.181324 0.090571 0.385632 -0.063457 0.133994 0.328684 -0.072950 0.370512 0.215031 0.166315 -0.116903 -0.154226 -0.071805 -0.004783 -0.095617 -0.264126 -0.193724 -0.052185 0.091850 0.242036 0.208335 -0.062609 -0.146906 0.038021 -0.020133 0.037106 -0.250974 0.261153 0.137481 0.084616 0.091103 0.023471 0.139580 -0.036498 -0.159516 0.021655 -0.287511 0.269616 -0.189079 
/organization/organization/child./organization/organization_relationship/child 0.321878 0.077901 -0.172499 -0.136992 -0.091469 0.067379 0.001134 0.104442 0.115469 -0.118670 -0.039739 0.084066 -0.339905 0.210640 0.084177 0.063984 -0.112750 0.033722 -0.206318 0.014448 -0.013527 -0.514373 0.029874 0.028375 -0.076661 0.263166 0.395161 -0.161654 -0.090567 0.018526 0.404538 0.294384 -0.266660 -0.342856 0.317413 -0.379456 0.083659 0.400161 -0.348497 -0.230458 0.018033 0.220380 -0.128858 0.476380 0.160868 0.409942 0.067484 0.347743 0.046329 -0.388657 0.145460 -0.073216 -0.595574 -0.269531 0.025254 0.077370 0.131770 -0.235779 -0.130888 0.127108 -0.144279 -0.041808 0.133592 -0.335513 0.113794 -0.061825 -0.180205 0.271256 0.022716 0.114990 0.394539 -0.192657 0.094658 -0.079848 0.226598 0.467103 0.152697 0.140674 0.010041 -0.005909 0.059208 -0.166805 0.117275 0.020277 -0.015256 -0.276301 -0.160305 0.216547 0.193468 -0.221709 0.096399 0.500964 -0.069301 0.197812 0.426335 -0.086433 0.466074 0.301913 0.202226 -0.135025 -0.235625 -0.085750 -0.004766 -0.127506 -0.364790 -0.257235 -0.059801 0.127003 0.316661 0.236213 -0.097787 -0.217025 0.020820 -0.072252 0.071789 -0.356194 0.336389 0.177699 0.109989 0.134236 0.074494 0.175895 -0.042003 -0.202715 0.025711 -0.375206 0.376269 -0.223415 
/organization/organization/leadership./organization/leadership/role 0.334056 0.075374 -0.182355 -0.138506 -0.087336 0.070578 0.003427 0.103608 0.109542 -0.127962 -0.038740 0.087121 -0.350388 0.212453 0.090463 0.063408 -0.114552 0.039159 -0.214719 0.013878 -0.014199 -0.520559 0.034864 0.029363 -0.077517 0.270428 0.397539 -0.170518 -0.089078 0.014537 0.406146 0.303622 -0.263730 -0.348212 0.319378 -0.385199 0.082887 0.403309 -0.351628 -0.230486 0.020487 0.226919 -0.134194 0.484476 0.161917 0.413364 0.077180 0.352790 0.040045 -0.392670 0.152094 -0.072986 -0.604898 -0.280512 0.027123 0.080355 0.126823 -0.242537 -0.138989 0.129742 -0.143242 -0.041725 0.134928 -0.332912 0.113198 -0.063550 -0.178278 0.270970 0.025563 0.117264 0.395666 -0.198003 0.095804 -0.084537 0.230016 0.474396 0.157563 0.141038 0.006551 -0.009904 0.067266 -0.168655 0.111777 0.020809 -0.019185 -0.272919 -0.166982 0.215958 0.198864 -0.228634 0.103390 0.506642 -0.073751 0.201029 0.427587 -0.089903 0.476244 0.305738 0.202035 -0.137992 -0.244672 -0.087044 -0.002002 -0.129730 -0.377064 -0.262900 -0.061958 0.127523 0.326210 0.241276 -0.104096 -0.219989 0.018546 -0.070051 0.065224 -0.360653 0.343254 0.173736 0.117677 0.136245 0.080002 0.173076 -0.039802 -0.202857 0.034141 -0.377849 0.379141 -0.228909 
/organization/organization/parent./organization/organization_relationship/parent 0.357930 0.084914 -0.190919 -0.141490 -0.102045 0.073880 0.000240 0.119865 0.119546 -0.129049 -0.038509 0.097285 -0.374102 0.232171 0.093166 0.073378 -0.120301 0.038406 -0.231623 0.014271 -0.015699 -0.559716 0.037080 0.025591 -0.076193 0.286177 0.425546 -0.179424 -0.094736 0.019391 0.439006 0.322931 -0.285869 -0.377439 0.350430 -0.415485 0.093027 0.437877 -0.378379 -0.254443 0.021275 0.243386 -0.146477 0.521546 0.175363 0.446476 0.073737 0.385295 0.040456 -0.419050 0.162616 -0.083496 -0.651335 -0.294314 0.028085 0.086478 0.143745 -0.254679 -0.150094 0.132777 -0.157037 -0.048315 0.145319 -0.363859 0.122956 -0.072206 -0.196831 0.293724 0.027028 0.120871 0.423630 -0.210698 0.102837 -0.093265 0.249561 0.505783 0.173884 0.156878 0.011504 -0.006174 0.072651 -0.185124 0.127239 0.019674 -0.021634 -0.294319 -0.177205 0.233632 0.208379 -0.244980 0.103957 0.545149 -0.073489 0.210705 0.459152 -0.102323 0.510877 0.334453 0.215340 -0.155038 -0.262533 -0.097538 -0.008744 -0.146192 -0.401328 -0.284222 -0.068195 0.145169 0.351831 0.260914 -0.105125 -0.236783 0.018598 -0.081207 0.077031 -0.394221 0.373557 0.189960 0.126746 0.140896 0.086021 0.183424 -0.038564 -0.217901 0.031062 -0.412856 0.408155 -0.248080 
/base/schemastaging/organization_extra/phone_number./base/schemastaging/phone_sandbox/service_location 0.364807 0.087071 -0.203555 -0.148006 -0.105612 0.082318 -0.001490 0.121957 0.125092 -0.140524 -0.038199 0.100406 -0.387748 0.240416 0.099520 0.075546 -0.128466 0.046463 -0.237927 0.015632 -0.015158 -0.581268 0.033662 0.032599 -0.083013 0.296255 0.440806 -0.187387 -0.103912 0.015844 0.453733 0.333518 -0.296612 -0.391759 0.362663 -0.423480 0.092983 0.444244 -0.389259 -0.252053 0.021521 0.251953 -0.142862 0.539444 0.175698 0.452998 0.077620 0.392805 0.051547 -0.437982 0.167540 -0.088309 -0.669738 -0.303873 0.029298 0.090884 0.144624 -0.269463 -0.152772 0.141485 -0.156498 -0.052319 0.144404 -0.376879 0.126190 -0.074766 -0.202071 0.300723 0.024742 0.128707 0.435417 -0.218543 0.115008 -0.091913 0.252631 0.520664 0.170447 0.158173 0.012126 -0.010669 0.072711 -0.193304 0.126781 0.027426 -0.025526 -0.302485 -0.182629 0.234345 0.220319 -0.249088 0.112970 0.562022 -0.079024 0.220486 0.480257 -0.095278 0.529338 0.341609 0.221691 -0.149806 -0.262684 -0.097953 -0.002436 -0.144173 -0.411611 -0.285239 -0.062827 0.140445 0.352853 0.266835 -0.109210 -0.241876 0.022115 -0.074889 0.079702 -0.403731 0.383416 0.192861 0.127756 0.145359 0.087839 0.191238 -0.045683 -0.228604 0.037273 -0.421998 0.422505 -0.251056 
/base/schemastaging/organization_extra/phone_number./base/schemastaging/phone_sandbox/service_language 0.383168 0.094401 -0.210825 -0.161348 -0.111873 0.082099 0.000882 0.130128 0.134803 -0.145639 -0.040333 0.099948 -0.403381 0.254180 0.105025 0.077500 -0.135726 0.045815 -0.246849 0.024287 -0.013426 -0.610659 0.033184 0.029318 -0.082345 0.313797 0.467051 -0.192069 -0.106043 0.021808 0.480136 0.350947 -0.311638 -0.408956 0.379458 -0.445569 0.098425 0.464244 -0.412477 -0.268673 0.017986 0.260922 -0.156000 0.565324 0.183048 0.475950 0.084869 0.412398 0.053844 -0.457474 0.173909 -0.092173 -0.702323 -0.323966 0.029478 0.094167 0.155503 -0.281844 -0.155784 0.148385 -0.166791 -0.049614 0.151220 -0.391521 0.135762 -0.077523 -0.213971 0.320235 0.026625 0.134424 0.457484 -0.224914 0.118375 -0.095061 0.270494 0.551416 0.177536 0.169838 0.010054 -0.014084 0.078138 -0.203110 0.134175 0.026580 -0.025708 -0.323483 -0.194394 0.246837 0.227822 -0.259608 0.117398 0.593537 -0.084202 0.232567 0.502831 -0.105431 0.546887 0.355862 0.234773 -0.163152 -0.276368 -0.107923 -0.010306 -0.151095 -0.437052 -0.306039 -0.072334 0.147256 0.370440 0.275386 -0.115388 -0.255609 0.023509 -0.082754 0.081795 -0.425431 0.399405 0.206888 0.135827 0.155826 0.089882 0.203146 -0.048690 -0.235936 0.036419 -0.441240 0.436590 -0.260153 
/base/schemastaging/organization_extra/phone_number./base/schemastaging/phone_open_times/time_zone 0.333874 0.077288 -0.179929 -0.131343 -0.096695 0.066847 0.005042 0.104850 0.116655 -0.120739 -0.036543 0.087439 -0.356297 0.214068 0.090061 0.067645 -0.119994 0.042735 -0.217291 0.015527 -0.012201 -0.526833 0.033774 0.027836 -0.071000 0.274679 0.401699 -0.172813 -0.088202 0.015845 0.417413 0.302747 -0.268928 -0.351622 0.327415 -0.386391 0.090533 0.404273 -0.360170 -0.230080 0.016926 0.224442 -0.128731 0.491917 0.159036 0.417681 0.074397 0.353277 0.044010 -0.399864 0.156745 -0.079631 -0.606505 -0.280872 0.029996 0.084227 0.132355 -0.238491 -0.140169 0.132861 -0.149361 -0.049255 0.131023 -0.339126 0.118079 -0.068710 -0.183246 0.277878 0.018951 0.121014 0.394935 -0.201223 0.104612 -0.088824 0.237961 0.472491 0.160977 0.140364 0.013631 -0.008782 0.069581 -0.176897 0.113021 0.023483 -0.023364 -0.275798 -0.165574 0.216386 0.197986 -0.227406 0.103567 0.512281 -0.070893 0.203908 0.437695 -0.091713 0.477904 0.313630 0.208726 -0.138213 -0.246432 -0.086969 -0.001982 -0.135568 -0.380824 -0.260111 -0.057804 0.132544 0.322662 0.239362 -0.102017 -0.222357 0.022695 -0.070301 0.069571 -0.369911 0.350788 0.176507 0.118447 0.130028 0.082205 0.174158 -0.040037 -0.207218 0.032476 -0.383775 0.385785 -0.228900 
/organization/organization/legal_structure 0.273831 0.061835 -0.147321 -0.113793 -0.076472 0.056314 -0.001322 0.091993 0.098955 -0.114548 -0.027475 0.082251 -0.303966 0.185051 0.074341 0.051699 -0.098926 0.038121 -0.190603 0.015171 -0.016045 -0.466302 0.029189 0.023778 -0.065043 0.239383 0.353000 -0.151712 -0.081431 0.018460 0.355609 0.269629 -0.237174 -0.313690 0.286722 -0.342289 0.075702 0.355443 -0.312380 -0.202497 0.015987 0.201390 -0.116939 0.438215 0.148076 0.372583 0.062069 0.315662 0.034453 -0.354085 0.133675 -0.071322 -0.537844 -0.251526 0.020169 0.073648 0.115052 -0.213912 -0.117452 0.113090 -0.130168 -0.042009 0.120861 -0.306851 0.107394 -0.059173 -0.161894 0.244651 0.019482 0.106291 0.358126 -0.174643 0.088929 -0.074318 0.208403 0.422808 0.147593 0.128649 0.012000 -0.010138 0.059451 -0.160383 0.103489 0.021244 -0.018608 -0.249701 -0.150496 0.190064 0.182205 -0.201143 0.088798 0.462040 -0.065211 0.177434 0.385902 -0.080640 0.425128 0.282564 0.184414 -0.124543 -0.220769 -0.083045 -0.006374 -0.122971 -0.342533 -0.233101 -0.051846 0.115952 0.295377 0.213981 -0.096258 -0.202951 0.015813 -0.064378 0.068049 -0.331529 0.312489 0.162987 0.104976 0.123482 0.070736 0.154131 -0.030912 -0.182845 0.030472 -0.344956 0.347615 -0.203212 
/base/schemastaging/organization_extra/phone_number./base/schemastaging/phone_sandbox/contact_category 0.352189 0.082067 -0.194227 -0.139353 -0.102979 0.076545 -0.000626 0.118611 0.119761 -0.134639 -0.033758 0.090464 -0.377021 0.230472 0.096361 0.070241 -0.124975 0.044029 -0.226549 0.019991 -0.015595 -0.558091 0.031902 0.030910 -0.082918 0.290055 0.426227 -0.180409 -0.100353 0.017036 0.441802 0.324162 -0.284194 -0.377194 0.347515 -0.414759 0.092128 0.431387 -0.374761 -0.244476 0.017819 0.237351 -0.137338 0.515756 0.166799 0.442788 0.076480 0.378568 0.044799 -0.424004 0.161249 -0.084756 -0.641629 -0.300672 0.027356 0.088067 0.137623 -0.260253 -0.143032 0.140504 -0.152086 -0.052681 0.139685 -0.359281 0.123905 -0.066591 -0.194857 0.293332 0.021651 0.128956 0.425603 -0.212607 0.106972 -0.087220 0.248828 0.504567 0.170384 0.154450 0.010169 -0.006422 0.067967 -0.182352 0.119953 0.023681 -0.022875 -0.296788 -0.172449 0.230224 0.211376 -0.237108 0.103287 0.545296 -0.075658 0.212894 0.462352 -0.094495 0.502282 0.327335 0.218097 -0.144529 -0.253029 -0.094922 -0.004165 -0.136575 -0.403478 -0.279704 -0.063282 0.138434 0.345975 0.259547 -0.107344 -0.234227 0.020808 -0.079302 0.072290 -0.393025 0.370826 0.192610 0.126353 0.145095 0.085082 0.182645 -0.041403 -0.223730 0.037207 -0.407336 0.406764 -0.240636 
/people/profession/people_with_this_profession 0.115601 0.033539 -0.070080 -0.058578 -0.049838 0.034572 -0.008698 0.050745 0.076207 -0.104483 -0.026158 0.073179 -0.250048 0.137329 0.063966 0.033949 -0.084631 0.053984 -0.160556 0.001597 -0.017850 -0.393255 0.017457 0.028932 -0.059872 0.204199 0.293745 -0.131154 -0.074028 0.017613 0.279759 0.216976 -0.207672 -0.265284 0.260761 -0.282178 0.067785 0.295489 -0.278457 -0.184936 0.017402 0.178069 -0.108699 0.392955 0.134545 0.333951 0.054761 0.276605 0.035202 -0.323584 0.119856 -0.060520 -0.488953 -0.230969 0.012391 0.073414 0.090585 -0.199416 -0.109074 0.114185 -0.131252 -0.025091 0.103821 -0.279613 0.099467 -0.071162 -0.163995 0.229043 0.023173 0.114209 0.327086 -0.161293 0.093932 -0.073507 0.210553 0.405347 0.150357 0.121368 0.002215 -0.008736 0.051883 -0.153334 0.111980 0.019057 -0.016601 -0.236077 -0.145966 0.171891 0.184182 -0.196341 0.074033 0.441397 -0.044151 0.178984 0.357082 -0.071039 0.397603 0.273798 0.165307 -0.114540 -0.218671 -0.080473 -0.005774 -0.112598 -0.328425 -0.228018 -0.046195 0.111160 0.274401 0.183383 -0.096109 -0.194229 -0.001389 -0.086444 0.069956 -0.322821 0.289521 0.152658 0.101084 0.120277 0.086448 0.142428 -0.033357 -0.176867 0.024373 -0.320551 0.334839 -0.184700 
/people/profession/specialization_of 0.297635 0.075329 -0.157763 -0.124810 -0.093872 0.070204 -0.002700 0.107131 0.110529 -0.137876 -0.034214 0.092309 -0.371465 0.215402 0.087706 0.066905 -0.115221 0.046769 -0.217974 0.022399 -0.022384 -0.555592 0.032016 0.024023 -0.081794 0.288475 0.412138 -0.175510 -0.091069 0.022937 0.418829 0.312611 -0.287953 -0.374019 0.342245 -0.399823 0.085869 0.427503 -0.371837 -0.241707 0.017520 0.244598 -0.138113 0.518119 0.174710 0.445273 0.077150 0.377976 0.051831 -0.428128 0.161518 -0.078270 -0.653089 -0.303553 0.023940 0.093157 0.134820 -0.253267 -0.148651 0.137257 -0.163282 -0.050592 0.147960 -0.367886 0.125532 -0.082136 -0.205470 0.291393 0.018983 0.137547 0.431854 -0.215499 0.107404 -0.090065 0.257743 0.506192 0.173906 0.160737 0.010116 -0.008017 0.072036 -0.185165 0.136929 0.018195 -0.024887 -0.292486 -0.176794 0.226669 0.216978 -0.250525 0.110805 0.554366 -0.071013 0.219615 0.462523 -0.092434 0.517404 0.336685 0.215045 -0.142305 -0.272285 -0.092029 -0.006030 -0.146408 -0.403878 -0.289906 -0.062816 0.141664 0.350963 0.257764 -0.111193 -0.245018 0.019048 -0.083799 0.076633 -0.400429 0.372317 0.187866 0.125916 0.149319 0.086154 0.189752 -0.046658 -0.228359 0.027874 -0.411002 0.420153 -0.242878 
/music/genre/artists 0.156870 0.045761 -0.090023 -0.073585 -0.053043 0.036453 -0.003776 0.059303 0.089598 -0.104091 -0.022707 0.080680 -0.274540 0.166069 0.069896 0.036785 -0.083582 0.050175 -0.174661 0.007475 -0.014058 -0.434055 0.022161 0.023092 -0.069454 0.216337 0.317371 -0.140585 -0.081831 0.009198 0.305831 0.232067 -0.222267 -0.294674 0.278768 -0.310101 0.070981 0.321892 -0.296282 -0.195008 0.017030 0.188887 -0.121740 0.419658 0.146440 0.354122 0.057960 0.299483 0.037775 -0.351729 0.128825 -0.069573 -0.522635 -0.251238 0.023066 0.071907 0.099415 -0.212234 -0.112619 0.113592 -0.139320 -0.028100 0.112160 -0.295414 0.105298 -0.072018 -0.172484 0.238688 0.020710 0.114535 0.349614 -0.171653 0.098935 -0.070821 0.220687 0.415149 0.150425 0.129705 0.005068 -0.016308 0.049540 -0.164308 0.112916 0.020275 -0.025305 -0.246570 -0.144099 0.183618 0.189840 -0.196522 0.082225 0.457924 -0.049929 0.179185 0.383217 -0.079597 0.417891 0.289176 0.169500 -0.122396 -0.225881 -0.082686 -0.008221 -0.116390 -0.347751 -0.237942 -0.046172 0.120501 0.294169 0.198973 -0.098610 -0.199535 0.008012 -0.085655 0.076362 -0.332048 0.304237 0.160594 0.106361 0.123492 0.083826 0.148451 -0.029340 -0.186737 0.025489 -0.345040 0.353896 -0.191961 
/music/genre/parent_genre 0.235586 0.059511 -0.137483 -0.100841 -0.069893 0.051441 -0.006350 0.079361 0.106714 -0.121913 -0.026978 0.095766 -0.339454 0.203433 0.081570 0.052158 -0.100547 0.052671 -0.204801 0.007352 -0.020604 -0.510864 0.025746 0.023163 -0.078867 0.260990 0.386610 -0.170087 -0.091137 0.010593 0.373030 0.283324 -0.262005 -0.344426 0.323169 -0.371320 0.082099 0.378045 -0.349178 -0.234978 0.015944 0.223035 -0.135433 0.480470 0.167077 0.407039 0.070876 0.353292 0.043542 -0.400504 0.148296 -0.081244 -0.605335 -0.288924 0.023163 0.084296 0.121655 -0.242980 -0.134474 0.132440 -0.158234 -0.036301 0.129960 -0.344874 0.114840 -0.081355 -0.192460 0.271927 0.028099 0.129371 0.394677 -0.202399 0.111358 -0.088989 0.243142 0.477789 0.168451 0.143110 0.001112 -0.011073 0.058152 -0.175609 0.123409 0.023596 -0.028060 -0.286142 -0.166929 0.222107 0.213864 -0.233376 0.096458 0.527021 -0.062220 0.209242 0.433858 -0.094905 0.486247 0.319688 0.196850 -0.134903 -0.254870 -0.095851 -0.007311 -0.137153 -0.387132 -0.272937 -0.060868 0.142326 0.329415 0.230718 -0.107291 -0.231953 0.007037 -0.084388 0.078422 -0.375519 0.346426 0.181069 0.119669 0.133321 0.090912 0.175112 -0.039745 -0.214370 0.033598 -0.394274 0.398269 -0.230554 
/music/genre/subgenre 0.197453 0.055305 -0.119500 -0.085535 -0.067842 0.046596 -0.000548 0.073886 0.099244 -0.117289 -0.024287 0.094643 -0.319354 0.188208 0.076522 0.043528 -0.097109 0.047190 -0.193581 0.007382 -0.018934 -0.484913 0.028217 0.025373 -0.073090 0.250180 0.361992 -0.163719 -0.089966 0.014126 0.350994 0.265795 -0.249006 -0.321751 0.315701 -0.349957 0.079683 0.356257 -0.331896 -0.222542 0.019301 0.209198 -0.134319 0.465178 0.156058 0.386525 0.066946 0.330114 0.039199 -0.387515 0.143588 -0.076772 -0.584967 -0.274330 0.025653 0.082068 0.114222 -0.234175 -0.132983 0.131089 -0.147065 -0.040600 0.122213 -0.328939 0.108506 -0.073703 -0.186347 0.262898 0.021250 0.125486 0.379525 -0.193994 0.110235 -0.083993 0.238190 0.464803 0.164617 0.135373 0.002477 -0.011059 0.061149 -0.177529 0.128513 0.020902 -0.029279 -0.274289 -0.161357 0.212663 0.209776 -0.219838 0.094387 0.512765 -0.057469 0.202252 0.420449 -0.093049 0.469876 0.319137 0.187636 -0.127306 -0.245972 -0.085819 -0.010337 -0.136617 -0.382770 -0.258191 -0.054690 0.134816 0.318638 0.222268 -0.101413 -0.219384 0.009082 -0.087603 0.076632 -0.368367 0.338605 0.176997 0.110089 0.135103 0.087235 0.163803 -0.034465 -0.209255 0.032835 -0.381614 0.382855 -0.214853 
/people/marriage_union_type/unions_of_this_type./people/marriage/spouse 0.039991 0.009230 -0.029129 -0.027786 -0.023727 0.011959 -0.008384 0.029818 0.064499 -0.089796 -0.011531 0.067705 -0.198747 0.107154 0.052095 0.020082 -0.067277 0.053448 -0.138955 -0.005111 -0.012174 -0.338682 0.015037 0.029806 -0.057518 0.169186 0.239589 -0.117214 -0.063859 0.010741 0.217378 0.172206 -0.179987 -0.234631 0.230459 -0.237587 0.052372 0.241275 -0.240796 -0.161803 0.024354 0.154928 -0.104515 0.351778 0.122148 0.289949 0.048542 0.244726 0.026403 -0.294819 0.100876 -0.054418 -0.435933 -0.210226 0.009788 0.063402 0.078509 -0.172589 -0.089755 0.099255 -0.123022 -0.016176 0.083868 -0.249739 0.086929 -0.067426 -0.145707 0.205387 0.024071 0.101743 0.293431 -0.143372 0.087219 -0.067425 0.196367 0.363958 0.144491 0.108806 0.004232 -0.012283 0.044768 -0.139599 0.108261 0.025945 -0.018414 -0.213677 -0.132453 0.148853 0.173653 -0.168826 0.062083 0.402858 -0.037643 0.160410 0.324096 -0.065962 0.362909 0.254162 0.153738 -0.103494 -0.205446 -0.071343 -0.008962 -0.108235 -0.305651 -0.208297 -0.044143 0.103497 0.250057 0.161603 -0.093167 -0.181240 -0.006278 -0.078360 0.065680 -0.299949 0.263273 0.134505 0.089190 0.111917 0.084658 0.126747 -0.027511 -0.156118 0.023338 -0.295555 0.310221 -0.164403 
/people/marriage_union_type/unions_of_this_type./people/marriage/location_of_ceremony 0.400941 0.094481 -0.208694 -0.164252 -0.112158 0.077136 0.010641 0.130843 0.141338 -0.149142 -0.035702 0.113764 -0.427335 0.255084 0.107275 0.074914 -0.139293 0.050915 -0.256521 0.026526 -0.018763 -0.634970 0.036623 0.031062 -0.090038 0.314510 0.479081 -0.199361 -0.114696 0.015567 0.494374 0.356216 -0.313900 -0.414502 0.393412 -0.466386 0.103695 0.478756 -0.421117 -0.270747 0.019687 0.265446 -0.152750 0.574594 0.197787 0.498389 0.094758 0.419676 0.057434 -0.478221 0.184191 -0.092769 -0.721473 -0.336439 0.029609 0.092471 0.161142 -0.282930 -0.166581 0.150032 -0.178389 -0.046618 0.153654 -0.406028 0.137798 -0.086718 -0.214280 0.332864 0.018757 0.144463 0.465540 -0.231089 0.118424 -0.104394 0.272741 0.556901 0.185150 0.172247 0.008683 -0.010228 0.072174 -0.202168 0.147773 0.035107 -0.016619 -0.335553 -0.199766 0.253234 0.239844 -0.275250 0.122003 0.617761 -0.077846 0.234014 0.519330 -0.100413 0.574353 0.370864 0.252969 -0.168603 -0.292455 -0.111832 -0.006788 -0.156166 -0.445906 -0.316134 -0.071775 0.155898 0.394380 0.287828 -0.116431 -0.258771 0.014807 -0.083189 0.084629 -0.434380 0.416357 0.214430 0.142106 0.152375 0.091729 0.206411 -0.047466 -0.255498 0.038634 -0.456885 0.455874 -0.273315 
/royalty/royal_line/monarchs_from_this_line 0.145728 0.032609 -0.078459 -0.069945 -0.048311 0.036743 -0.005256 0.058570 0.083283 -0.099842 -0.023452 0.085035 -0.269050 0.156714 0.072694 0.038719 -0.087824 0.047673 -0.173265 0.004332 -0.018853 -0.421518 0.018945 0.026151 -0.063746 0.206460 0.312853 -0.132751 -0.074848 0.016297 0.300234 0.231985 -0.213714 -0.280127 0.277136 -0.304121 0.070507 0.308484 -0.289184 -0.189358 0.020193 0.183829 -0.114536 0.406777 0.134920 0.347576 0.062841 0.287727 0.030520 -0.342115 0.125306 -0.060482 -0.508883 -0.247757 0.016407 0.077146 0.092966 -0.200691 -0.106685 0.108539 -0.135280 -0.025132 0.099079 -0.288447 0.103198 -0.070615 -0.165303 0.234012 0.028421 0.121110 0.344025 -0.170090 0.095446 -0.077491 0.217977 0.410145 0.149858 0.127497 0.004862 -0.013019 0.055457 -0.161004 0.116742 0.023471 -0.018455 -0.241961 -0.147754 0.176874 0.185439 -0.194451 0.083280 0.455517 -0.056494 0.181464 0.375300 -0.078940 0.407792 0.280074 0.167832 -0.116126 -0.226839 -0.083329 -0.001873 -0.115400 -0.333410 -0.238655 -0.049903 0.113907 0.289939 0.201777 -0.095967 -0.205935 0.001137 -0.079580 0.068077 -0.329846 0.304276 0.151333 0.104939 0.115954 0.085161 0.147576 -0.035250 -0.187224 0.023649 -0.334970 0.343255 -0.191766 
/award/award_category/disciplines_or_subjects -0.010422 0.005967 -0.006776 -0.010094 -0.016748 0.010391 -0.011129 0.014251 0.062239 -0.089578 -0.010107 0.071358 -0.199296 0.102077 0.051783 0.022945 -0.061966 0.062993 -0.140443 -0.012275 -0.015928 -0.342523 0.018457 0.033909 -0.054151 0.172166 0.235245 -0.120530 -0.065709 0.017882 0.205197 0.170543 -0.178483 -0.228838 0.235564 -0.234414 0.055394 0.237829 -0.242787 -0.159542 0.024490 0.154724 -0.107871 0.359153 0.126826 0.301909 0.052522 0.243553 0.021673 -0.300796 0.102133 -0.061481 -0.450515 -0.218802 0.011117 0.071651 0.074170 -0.180630 -0.089852 0.101652 -0.133110 -0.013160 0.078836 -0.256696 0.087382 -0.070887 -0.149225 0.209061 0.020144 0.118637 0.297936 -0.150321 0.087003 -0.065268 0.210256 0.376487 0.150574 0.108538 0.001551 -0.021925 0.046106 -0.151594 0.115297 0.024591 -0.024397 -0.212328 -0.132352 0.152125 0.186372 -0.175139 0.065349 0.415804 -0.036231 0.166205 0.334448 -0.067759 0.368661 0.264143 0.155059 -0.100009 -0.221496 -0.066205 -0.010432 -0.113770 -0.316837 -0.217750 -0.047283 0.103911 0.257972 0.160526 -0.097949 -0.194688 -0.006549 -0.086194 0.075690 -0.311147 0.276455 0.141992 0.099599 0.118356 0.090579 0.123300 -0.032928 -0.158565 0.018132 -0.303318 0.317601 -0.162590 
/award/award_category/winners./award/award_honor/award_winner 0.215299 0.059857 -0.108960 -0.105400 -0.073997 0.044165 -0.003413 0.075419 0.123299 -0.137075 -0.025416 0.094856 -0.371310 0.219461 0.087544 0.059748 -0.107631 0.063192 -0.238798 0.013262 -0.017225 -0.560405 0.029410 0.036883 -0.097321 0.285631 0.413990 -0.188857 -0.101534 0.030801 0.415359 0.305415 -0.296313 -0.388042 0.360701 -0.407361 0.099777 0.415151 -0.388775 -0.252192 0.032569 0.254659 -0.157995 0.561000 0.191504 0.458149 0.077949 0.402128 0.054595 -0.464660 0.167588 -0.084655 -0.686561 -0.320554 0.031306 0.097767 0.133597 -0.285620 -0.158823 0.145059 -0.188580 -0.035760 0.132712 -0.386181 0.136746 -0.099090 -0.210842 0.319507 0.019891 0.147141 0.465435 -0.223099 0.126026 -0.107604 0.290933 0.566406 0.207741 0.164076 0.010208 -0.010824 0.069050 -0.199405 0.156598 0.030171 -0.034072 -0.321554 -0.187019 0.239866 0.241122 -0.263217 0.101009 0.607783 -0.067745 0.242720 0.494207 -0.103072 0.551294 0.385028 0.229594 -0.163043 -0.295200 -0.108425 -0.014337 -0.149974 -0.464214 -0.323340 -0.074862 0.158932 0.390566 0.259404 -0.126084 -0.262409 0.004743 -0.103672 0.099960 -0.440565 0.398130 0.216771 0.144533 0.155748 0.116501 0.207319 -0.049188 -0.250205 0.023910 -0.439970 0.466343 -0.250539 
/award/award_category/presenting_organization 0.015183 0.007574 -0.021639 -0.019720 -0.023078 0.015830 -0.006867 0.021153 0.062109 -0.089435 -0.011389 0.074203 -0.202950 0.112742 0.060330 0.024861 -0.066485 0.056999 -0.140988 -0.012209 -0.012011 -0.347596 0.013318 0.031972 -0.053282 0.177533 0.246171 -0.117926 -0.064117 0.017572 0.219824 0.176234 -0.185884 -0.231662 0.242418 -0.241540 0.057134 0.241286 -0.251758 -0.163914 0.020475 0.155076 -0.107290 0.364060 0.130448 0.305912 0.051991 0.247601 0.026289 -0.302092 0.102446 -0.060513 -0.451484 -0.219608 0.017243 0.070011 0.074702 -0.183941 -0.091567 0.102204 -0.133025 -0.012525 0.082356 -0.253269 0.090141 -0.070212 -0.148968 0.214095 0.019916 0.116070 0.298623 -0.148334 0.088156 -0.068539 0.207467 0.376331 0.154927 0.109306 0.002419 -0.021020 0.047104 -0.151733 0.112190 0.023489 -0.022657 -0.212457 -0.134570 0.154248 0.183397 -0.171115 0.068500 0.410869 -0.035143 0.163031 0.338036 -0.070181 0.371949 0.268124 0.150416 -0.107263 -0.214402 -0.071587 -0.011911 -0.112089 -0.319626 -0.217432 -0.047806 0.106528 0.265141 0.166157 -0.094146 -0.197421 -0.006892 -0.085381 0.075149 -0.315454 0.274569 0.137709 0.098038 0.113867 0.084755 0.129410 -0.033405 -0.163037 0.019228 -0.304317 0.320191 -0.166157 
/organization/membership_organization/members./organization/organization_membership/member 0.155498 0.034505 -0.086219 -0.073611 -0.052903 0.040379 -0.006291 0.061901 0.084576 -0.105193 -0.024092 0.078782 -0.261460 0.155257 0.065893 0.047233 -0.090448 0.049928 -0.172995 -0.001457 -0.018094 -0.420607 0.027302 0.027056 -0.060930 0.213003 0.306690 -0.141114 -0.072626 0.019731 0.295949 0.228485 -0.218363 -0.278524 0.277481 -0.299044 0.076132 0.306729 -0.294476 -0.191138 0.016331 0.187916 -0.116585 0.410704 0.138619 0.346584 0.059623 0.291856 0.035099 -0.338828 0.122031 -0.058877 -0.516164 -0.246314 0.017516 0.067024 0.095633 -0.209010 -0.114458 0.114504 -0.136771 -0.035094 0.110638 -0.287727 0.094234 -0.065438 -0.166891 0.240722 0.018700 0.115268 0.339563 -0.167135 0.095805 -0.073114 0.218830 0.409666 0.155331 0.121959 0.001397 -0.015886 0.050526 -0.159292 0.112890 0.019494 -0.024133 -0.241182 -0.146158 0.181111 0.187254 -0.200690 0.076295 0.449115 -0.054607 0.174176 0.378695 -0.076524 0.413988 0.286739 0.176494 -0.121398 -0.226062 -0.079649 -0.011861 -0.121066 -0.342181 -0.228276 -0.049123 0.122529 0.278935 0.193703 -0.093884 -0.196726 0.005766 -0.084890 0.066856 -0.331987 0.297276 0.154345 0.105079 0.120510 0.078176 0.150749 -0.035386 -0.180007 0.024747 -0.339354 0.344913 -0.195387 
/user/ktrueman/default_domain/international_organization/member_states 0.148925 0.042200 -0.088047 -0.072102 -0.047313 0.032684 -0.007535 0.063324 0.089259 -0.108761 -0.024630 0.078261 -0.268632 0.151163 0.064841 0.045936 -0.091256 0.052420 -0.172231 0.003700 -0.016533 -0.420266 0.021781 0.029426 -0.069474 0.217316 0.310592 -0.135385 -0.070016 0.015919 0.294375 0.226899 -0.220315 -0.280172 0.271239 -0.296724 0.070815 0.305969 -0.297349 -0.196299 0.021545 0.183764 -0.110961 0.418234 0.138183 0.343209 0.062224 0.293562 0.029656 -0.342358 0.130909 -0.062189 -0.517157 -0.246879 0.018052 0.069586 0.098863 -0.206127 -0.113347 0.109132 -0.141789 -0.034615 0.109523 -0.288013 0.102070 -0.070179 -0.164243 0.235418 0.026172 0.112170 0.344892 -0.170796 0.095398 -0.078033 0.218105 0.419172 0.153164 0.118743 0.003039 -0.013648 0.052996 -0.158776 0.117306 0.017412 -0.013794 -0.236422 -0.149079 0.180361 0.189321 -0.195676 0.079824 0.455452 -0.049608 0.183304 0.380355 -0.078184 0.410271 0.290398 0.176393 -0.113851 -0.234305 -0.074981 -0.011452 -0.124787 -0.346733 -0.231140 -0.049040 0.117110 0.285029 0.190725 -0.093719 -0.207653 -0.002015 -0.082953 0.069153 -0.328151 0.299960 0.161544 0.103047 0.123483 0.080736 0.142699 -0.030241 -0.182213 0.022350 -0.332517 0.340750 -0.190935 
/music/record_label/artist 0.261729 0.065966 -0.140231 -0.108268 -0.076272 0.050063 -0.001131 0.087474 0.099105 -0.115989 -0.027985 0.082428 -0.317140 0.187360 0.075300 0.050998 -0.101723 0.038319 -0.194949 0.008761 -0.011531 -0.473178 0.025478 0.029457 -0.071243 0.241008 0.360157 -0.152337 -0.080503 0.018723 0.357805 0.268511 -0.241440 -0.315509 0.300927 -0.344696 0.077582 0.356727 -0.319462 -0.214355 0.018419 0.199264 -0.119406 0.444063 0.147315 0.376342 0.067208 0.327235 0.037764 -0.360363 0.136209 -0.065323 -0.547850 -0.258615 0.025638 0.070762 0.121330 -0.218118 -0.120633 0.115020 -0.137550 -0.037370 0.125446 -0.314503 0.103913 -0.066437 -0.170828 0.247858 0.023595 0.110610 0.368042 -0.181366 0.091140 -0.082374 0.222569 0.441476 0.155171 0.136994 0.008409 -0.013229 0.054463 -0.159112 0.112381 0.020029 -0.014762 -0.258896 -0.148520 0.194469 0.186135 -0.205525 0.094980 0.478345 -0.061104 0.186456 0.397213 -0.086543 0.440004 0.293740 0.186471 -0.132398 -0.232430 -0.088012 -0.001224 -0.118827 -0.346875 -0.243160 -0.052845 0.126703 0.303429 0.219145 -0.090485 -0.211662 0.009771 -0.069646 0.067639 -0.339310 0.322519 0.161275 0.107670 0.123403 0.073391 0.161390 -0.032444 -0.194744 0.026739 -0.350602 0.358337 -0.204207 
/organization/organization/product_of_merger./organization/organization_merger/organizations_merging 0.188152 0.040729 -0.102600 -0.085714 -0.069911 0.038657 -0.001197 0.078476 0.093581 -0.115893 -0.035105 0.094535 -0.299614 0.172831 0.080733 0.049071 -0.098770 0.043541 -0.190518 0.008148 -0.013082 -0.475810 0.021631 0.020972 -0.064488 0.243950 0.350912 -0.149205 -0.089183 0.021923 0.336901 0.264482 -0.241925 -0.316285 0.298431 -0.344958 0.078167 0.350240 -0.334581 -0.212302 0.027885 0.198492 -0.136068 0.451633 0.161802 0.385712 0.059378 0.319826 0.040639 -0.376608 0.148167 -0.070143 -0.570911 -0.272566 0.023775 0.074873 0.109510 -0.221761 -0.130211 0.122961 -0.147826 -0.033291 0.121097 -0.327126 0.107100 -0.077464 -0.178246 0.265409 0.026714 0.130045 0.373656 -0.186913 0.107354 -0.087124 0.238851 0.458303 0.167606 0.133871 0.012845 -0.007924 0.057850 -0.168534 0.118061 0.018672 -0.016516 -0.269439 -0.168874 0.203920 0.199862 -0.225483 0.083676 0.506917 -0.057163 0.190980 0.419081 -0.093080 0.456665 0.312917 0.191282 -0.123674 -0.243625 -0.090415 -0.010607 -0.132887 -0.368918 -0.256103 -0.061986 0.125243 0.314694 0.224036 -0.105117 -0.222838 0.007841 -0.082442 0.083467 -0.369651 0.331042 0.177160 0.109995 0.127266 0.094749 0.156135 -0.040946 -0.197032 0.029106 -0.370996 0.375951 -0.208013 
/people/person/religion 0.412552 0.099985 -0.228555 -0.171823 -0.121088 0.078560 0.004522 0.140041 0.148723 -0.162109 -0.051567 0.122922 -0.456643 0.275525 0.117869 0.084755 -0.145240 0.054047 -0.276568 0.026725 -0.017513 -0.674431 0.043267 0.030612 -0.089656 0.337801 0.518730 -0.213828 -0.116873 0.022738 0.528759 0.390249 -0.345116 -0.446522 0.421522 -0.500830 0.117655 0.516942 -0.456945 -0.291620 0.024088 0.295438 -0.173694 0.621718 0.204219 0.535163 0.086792 0.453551 0.059982 -0.506300 0.199719 -0.101170 -0.772910 -0.368226 0.041892 0.101410 0.171398 -0.305675 -0.171885 0.160588 -0.192675 -0.052203 0.169270 -0.433143 0.156566 -0.089322 -0.234952 0.352450 0.026694 0.163860 0.503329 -0.249980 0.125008 -0.114722 0.303095 0.613493 0.202956 0.190618 0.005142 -0.012864 0.085324 -0.220711 0.153771 0.025181 -0.028996 -0.350485 -0.212535 0.280399 0.250110 -0.301433 0.133702 0.666359 -0.081299 0.246727 0.556988 -0.113174 0.613687 0.403735 0.266831 -0.175434 -0.315644 -0.112810 -0.010144 -0.172432 -0.475336 -0.348876 -0.076717 0.169373 0.411715 0.305928 -0.133061 -0.281585 0.017970 -0.099990 0.095858 -0.477368 0.442834 0.234845 0.156505 0.173601 0.092945 0.217633 -0.052702 -0.273889 0.039387 -0.500021 0.494096 -0.293017 
/people/person/ethnicity 0.313975 0.080102 -0.165456 -0.127184 -0.083598 0.060904 0.002642 0.105708 0.114417 -0.119030 -0.032694 0.087410 -0.348330 0.208323 0.087225 0.060409 -0.110378 0.042356 -0.209582 0.020467 -0.014715 -0.516762 0.028051 0.020306 -0.076116 0.259407 0.393736 -0.163971 -0.092162 0.012795 0.397369 0.293161 -0.259749 -0.341520 0.317993 -0.376240 0.080937 0.393798 -0.353625 -0.229214 0.018947 0.222250 -0.129537 0.474819 0.164374 0.408096 0.068353 0.349455 0.046161 -0.393342 0.154276 -0.069987 -0.589801 -0.279381 0.024681 0.078725 0.125006 -0.241278 -0.131680 0.120426 -0.147196 -0.037809 0.133351 -0.331168 0.117909 -0.072122 -0.184811 0.269930 0.017240 0.122310 0.390338 -0.192671 0.099739 -0.087430 0.226759 0.463500 0.159069 0.141904 0.007558 -0.007080 0.066424 -0.174555 0.117017 0.024705 -0.020096 -0.270464 -0.167036 0.211042 0.197033 -0.228324 0.098135 0.511108 -0.069703 0.198499 0.428342 -0.091316 0.473175 0.308886 0.205283 -0.142951 -0.236582 -0.090432 -0.008021 -0.133774 -0.369614 -0.267032 -0.064300 0.131186 0.317136 0.232480 -0.103147 -0.218575 0.010855 -0.078348 0.065730 -0.367041 0.346215 0.177311 0.119379 0.128912 0.079540 0.167376 -0.034166 -0.210337 0.024588 -0.384881 0.379011 -0.221689 
/people/person/spouse_s./people/marriage/type_of_union 0.287442 0.070731 -0.151620 -0.117757 -0.080122 0.055457 -0.002152 0.093111 0.102536 -0.119736 -0.031668 0.082610 -0.328781 0.198098 0.083146 0.058724 -0.102541 0.042188 -0.193183 0.019085 -0.016223 -0.493208 0.033281 0.026061 -0.068387 0.250211 0.369730 -0.157661 -0.083694 0.015614 0.381518 0.280635 -0.250035 -0.332060 0.301990 -0.361395 0.085039 0.370114 -0.335150 -0.214061 0.016197 0.207609 -0.125215 0.459286 0.158667 0.391094 0.072417 0.338125 0.037714 -0.370046 0.144760 -0.074588 -0.565074 -0.268256 0.022619 0.077540 0.118748 -0.231846 -0.128899 0.123012 -0.141508 -0.042105 0.122668 -0.324004 0.115986 -0.067570 -0.173435 0.260892 0.020816 0.121301 0.369533 -0.183573 0.096002 -0.082402 0.221851 0.451979 0.148388 0.139252 0.010040 -0.004699 0.060880 -0.164656 0.116121 0.020316 -0.021277 -0.260958 -0.159706 0.202959 0.188355 -0.220633 0.089206 0.487892 -0.060607 0.186663 0.412072 -0.088244 0.452775 0.293701 0.197811 -0.136430 -0.230646 -0.089368 -0.004192 -0.130231 -0.363107 -0.250331 -0.058002 0.121661 0.306964 0.226537 -0.101904 -0.213787 0.015060 -0.078275 0.064822 -0.352284 0.327928 0.167977 0.114616 0.122318 0.076162 0.161175 -0.033722 -0.199391 0.028145 -0.367388 0.361140 -0.214649 
/people/person/nationality 0.376081 0.087821 -0.201935 -0.152381 -0.097550 0.080081 0.006574 0.116716 0.126548 -0.143635 -0.044664 0.101136 -0.407101 0.241632 0.100815 0.073743 -0.125084 0.048127 -0.236890 0.022981 -0.020216 -0.604826 0.037287 0.033431 -0.085537 0.306274 0.452190 -0.191987 -0.104533 0.016423 0.461747 0.347387 -0.299530 -0.394670 0.371943 -0.441931 0.097576 0.455785 -0.401492 -0.261111 0.024044 0.250679 -0.149215 0.552421 0.183789 0.475777 0.081181 0.407349 0.047178 -0.451556 0.175195 -0.084251 -0.687416 -0.323103 0.031629 0.087713 0.148439 -0.280771 -0.156163 0.143715 -0.165340 -0.045974 0.147523 -0.386341 0.139044 -0.084036 -0.207196 0.317361 0.021521 0.143507 0.453888 -0.223443 0.120244 -0.094901 0.267037 0.542570 0.183287 0.160736 0.008119 -0.010723 0.079340 -0.201179 0.137216 0.029819 -0.018351 -0.315396 -0.184169 0.250527 0.227645 -0.259453 0.115135 0.592220 -0.079079 0.223464 0.495845 -0.102287 0.550084 0.351183 0.233901 -0.160330 -0.274939 -0.108291 -0.011867 -0.155153 -0.431073 -0.307290 -0.068788 0.151695 0.369905 0.276161 -0.113981 -0.252555 0.013078 -0.083452 0.075704 -0.425008 0.401182 0.201357 0.135385 0.147588 0.090861 0.192631 -0.042358 -0.244732 0.031623 -0.436976 0.436910 -0.263674 
/people/person/place_of_birth 0.375669 0.089950 -0.205621 -0.157930 -0.097471 0.073636 0.010641 0.118466 0.130475 -0.142871 -0.039639 0.105184 -0.397494 0.244548 0.102798 0.070292 -0.131388 0.042866 -0.235399 0.027557 -0.015563 -0.596648 0.034339 0.024073 -0.082697 0.302155 0.448597 -0.187800 -0.104721 0.012406 0.457852 0.341888 -0.293762 -0.389373 0.366301 -0.430007 0.098415 0.451134 -0.398108 -0.254853 0.024179 0.245716 -0.146372 0.546780 0.182392 0.461310 0.082857 0.401391 0.052788 -0.446412 0.171781 -0.080780 -0.676971 -0.318854 0.028282 0.094450 0.149486 -0.271959 -0.148390 0.138660 -0.158796 -0.044996 0.152080 -0.383194 0.131815 -0.082562 -0.208433 0.312103 0.018571 0.131692 0.439045 -0.217594 0.114527 -0.097792 0.265441 0.525042 0.173605 0.163663 0.010400 -0.007875 0.077282 -0.192435 0.136705 0.027885 -0.016101 -0.312037 -0.183904 0.246631 0.218238 -0.256579 0.109729 0.578400 -0.081465 0.219235 0.480404 -0.097871 0.540063 0.349181 0.232259 -0.154125 -0.274574 -0.106227 -0.006315 -0.147274 -0.419828 -0.292362 -0.073911 0.148361 0.363424 0.269810 -0.116184 -0.243593 0.020695 -0.081218 0.078561 -0.415560 0.386857 0.201767 0.128771 0.142965 0.088049 0.189382 -0.040927 -0.235962 0.031879 -0.427705 0.425257 -0.257151 
/people/person/profession 0.384348 0.097112 -0.203776 -0.159448 -0.101035 0.081064 0.001537 0.119727 0.140188 -0.145094 -0.047853 0.110338 -0.418495 0.248451 0.108902 0.074843 -0.129875 0.048172 -0.242826 0.020002 -0.019985 -0.625273 0.033114 0.034060 -0.090581 0.315312 0.470355 -0.194799 -0.105779 0.013989 0.484926 0.354131 -0.309059 -0.411988 0.381010 -0.456196 0.098774 0.469030 -0.413828 -0.274701 0.019083 0.260218 -0.153807 0.574913 0.193538 0.488039 0.083100 0.421691 0.052097 -0.465286 0.185271 -0.091649 -0.715156 -0.331062 0.037028 0.090590 0.150225 -0.288498 -0.165841 0.145082 -0.175711 -0.053707 0.156709 -0.396277 0.139386 -0.087794 -0.221659 0.319682 0.027232 0.148746 0.472077 -0.225987 0.124626 -0.098194 0.279882 0.563448 0.184427 0.168121 0.010604 -0.007227 0.073405 -0.200187 0.140671 0.031298 -0.022611 -0.330431 -0.192899 0.254196 0.231581 -0.274422 0.113433 0.608652 -0.075680 0.231436 0.505276 -0.106957 0.562414 0.367438 0.242127 -0.168300 -0.285683 -0.108172 -0.011590 -0.156624 -0.448036 -0.319398 -0.073568 0.156416 0.385374 0.283817 -0.121695 -0.261446 0.014515 -0.087561 0.081230 -0.434681 0.414470 0.211314 0.140916 0.153008 0.086489 0.202559 -0.044087 -0.247820 0.028918 -0.460362 0.453896 -0.274985 
/film/production_company/films 0.284658 0.062724 -0.151352 -0.117921 -0.081262 0.061340 -0.002092 0.096352 0.098318 -0.111185 -0.029083 0.077406 -0.318344 0.197588 0.075229 0.058193 -0.099583 0.041852 -0.194406 0.012876 -0.012328 -0.478564 0.028967 0.021646 -0.068211 0.240408 0.361743 -0.155791 -0.083170 0.019018 0.370501 0.275793 -0.244152 -0.320741 0.294401 -0.347617 0.082240 0.361461 -0.325321 -0.210232 0.014991 0.203327 -0.123263 0.445011 0.151389 0.380021 0.063728 0.320378 0.040312 -0.362606 0.137899 -0.066609 -0.547569 -0.252233 0.021123 0.073637 0.114245 -0.222685 -0.119849 0.121518 -0.130927 -0.042131 0.117889 -0.313206 0.110637 -0.059621 -0.167139 0.249694 0.020661 0.109369 0.366429 -0.180913 0.095130 -0.074228 0.217638 0.436859 0.143291 0.127032 0.004887 -0.011417 0.063838 -0.161936 0.109599 0.022883 -0.014039 -0.257130 -0.149931 0.198944 0.184931 -0.208440 0.086675 0.468743 -0.064396 0.185450 0.397767 -0.085645 0.431274 0.288375 0.182407 -0.130174 -0.226377 -0.084922 -0.003253 -0.126126 -0.349175 -0.242125 -0.057484 0.121951 0.298580 0.213323 -0.097485 -0.198458 0.015067 -0.064190 0.068377 -0.339346 0.313665 0.165985 0.109066 0.123462 0.071537 0.156893 -0.036361 -0.192354 0.031922 -0.351042 0.347559 -0.211740 
